{
  "brain": {
    "levels": [
      {
        "inputs": [
          0.05919293829674177,
          0,
          0.38234649031137447,
          0.3314566586298082,
          0.24375078685554397,
          0.6500000000000034
        ],
        "outputs": [
          0,
          0,
          0,
          1,
          1,
          1
        ],
        "biases": [
          0.18398868694401715,
          -0.1923033814006987,
          -0.07235122868375689,
          -0.2114947831835424,
          0.002082606404757631,
          0.09669655265057059
        ],
        "weights": [
          [
            0.06937511001474395,
            -0.04183447984648309,
            0.06932777172505458,
            -0.3449713995173695,
            0.02774178225285713,
            -0.028481060391717702
          ],
          [
            0.044262857972125716,
            -0.43822086047232883,
            0.2001411466235248,
            -0.1563146294894443,
            0.09921213765643916,
            0.0007842867874296167
          ],
          [
            0.12189633813245637,
            -0.23415771686600922,
            -0.3740709567701065,
            -0.4123028885201559,
            0.31714668042739474,
            0.20523530957677055
          ],
          [
            -0.4400855955541368,
            0.03892515052112043,
            -0.12479003850572148,
            0.18919434345003583,
            -0.01170626679862452,
            0.30543209297952284
          ],
          [
            -0.04908531383688078,
            0.37244756254632866,
            -0.31079793032314235,
            -0.11725338981882785,
            0.0124070787587665,
            0.05891113427139519
          ],
          [
            0.23002008057022422,
            -0.35809876749007735,
            -0.11749478663425224,
            -0.10242637427575557,
            -0.03951198636294214,
            -0.0011794241994847604
          ]
        ]
      },
      {
        "inputs": [
          0,
          0,
          0,
          1,
          1,
          1
        ],
        "outputs": [
          1,
          1,
          1,
          0
        ],
        "biases": [
          -0.28647111883389587,
          0.19413076470926444,
          0.06798678787163391,
          0.2301857152458755
        ],
        "weights": [
          [
            -0.23553593007449083,
            -0.045223003852653224,
            0.12954152843732503,
            -0.22246535901853365
          ],
          [
            -0.0028941715485683722,
            0.46027626034585556,
            -0.34015089365816414,
            -0.10219165595220267
          ],
          [
            0.39092222658490877,
            -0.33283554616490296,
            0.4441691682854956,
            0.08763208938755437
          ],
          [
            0.21748083644559418,
            0.07606817859536501,
            0.10519830006896544,
            0.03206901986450348
          ],
          [
            -0.09761643598759193,
            0.07694657941346555,
            0.2883554758423227,
            -0.1312248319478072
          ],
          [
            -0.24818181103425976,
            0.19262198692248406,
            -0.13299224497937745,
            0.09008118540141775
          ]
        ]
      }
    ]
  },
  "maxSpeed": 3,
  "friction": 0.05,
  "acceleration": 0.2,
  "width": 30,
  "height": 50,
  "sensor": {
    "rayCount": 5,
    "raySpread": 1.5707963267948966,
    "rayLength": 150,
    "rayOffset": 0
  }
}