[
  {
    "levels": [
      {
        "inputs": [
          0.48295698229531736, 0.04462907702954577, 0, 0, 0, 0.9833333333333334
        ],
        "outputs": [0, 1, 0, 0, 0, 1],
        "biases": [
          -0.08440627951293775, 0.14308006940053533, 0.3462180865173371,
          0.10763150316710719, -0.017475957361857038, -0.027962913725110228
        ],
        "weights": [
          [
            -0.2014446161050233, 0.04358870196154899, -0.008469579009619706,
            0.2698899683722947, -0.4966445668870617, 0.09952694124188502
          ],
          [
            0.07257094627561687, 0.20346702901652527, -0.3381448067076021,
            0.27817017565059027, -0.10339022006771766, 0.12135812827234253
          ],
          [
            -0.5137333351497669, -0.04771267723904668, 0.46204348144393487,
            -0.06912031121938082, -0.08299363397822525, -0.2669840805891281
          ],
          [
            -0.3248451967556379, -0.23856468542439344, 0.4722463460238423,
            0.23089465496983166, -0.2580612096653623, 0.2310356305951086
          ],
          [
            -0.08766740272353762, 0.06632303259530464, -0.10192024353620462,
            0.05529910142853597, -0.14806087307141047, 0.040287817316557784
          ],
          [
            -0.12432752300062237, 0.14024709464350024, -0.036633724417489105,
            -0.08213161150888992, -0.43259948751908284, 0.24303322326554094
          ]
        ]
      },
      {
        "inputs": [0, 1, 0, 0, 0, 1],
        "outputs": [1, 1, 1, 0],
        "biases": [
          -0.32672901533133014, -0.08929735283708504, 0.24325700358131516,
          0.22360407758503797
        ],
        "weights": [
          [
            -0.16412320878336195, -0.019154002209444323, 0.3680587275719516,
            -0.013447161782922365
          ],
          [
            0.020157973779372198, -0.11582263683075059, 0.3032675576871036,
            -0.2149801486379845
          ],
          [
            0.2640027645919454, 0.06498150953058698, 0.060055890212197004,
            0.3001976207496048
          ],
          [
            0.17278245949765952, -0.24970731446118344, 0.1884517158782165,
            0.03862260417059938
          ],
          [
            -0.09100279420732475, 0.3014365899678643, -0.13855528042197263,
            0.0784201340907357
          ],
          [
            -0.03634033873340908, 0.1898522820946354, 0.1708360478790238,
            0.06552053725585136
          ]
        ]
      }
    ]
  },
  {
    "levels": [
      {
        "inputs": [
          0.5123738388134564, 0.0989843403254056, 0, 0, 0, 0.9833333333333334
        ],
        "outputs": [0, 1, 0, 0, 0, 1],
        "biases": [
          -0.07744108918297635, 0.10277699158002498, 0.34810291473276056,
          0.1366608809491221, -0.04024260204299303, -0.010893495281303716
        ],
        "weights": [
          [
            -0.18856260385836726, 0.07101768818014711, -0.028177114264727236,
            0.26799517267037665, -0.4721354167037126, 0.07485518425039311
          ],
          [
            0.0924376013191059, 0.18262954386828137, -0.343720421345842,
            0.27988602234065924, -0.13579001914311156, 0.1285393917020837
          ],
          [
            -0.5551536216945988, -0.04094300049509479, 0.41519002789238146,
            -0.07205088873391076, -0.0837337182332536, -0.313996242273781
          ],
          [
            -0.31893592158260803, -0.25517086588314375, 0.4737730797965768,
            0.2584954019384565, -0.23881113031615017, 0.1909271512515669
          ],
          [
            -0.0747173526992845, 0.08390565097338372, -0.09711703919694686,
            0.06847207728467614, -0.15230888254117003, 0.00542469592664448
          ],
          [
            -0.13646098108553967, 0.09577977569862847, -0.017208865161855734,
            -0.09306814547244363, -0.4289063043884292, 0.24143742307763263
          ]
        ]
      },
      {
        "inputs": [0, 1, 0, 0, 0, 1],
        "outputs": [1, 1, 1, 0],
        "biases": [
          -0.360672071646783, -0.09303966784406845, 0.2613911181077857,
          0.2387173534859999
        ],
        "weights": [
          [
            -0.1899017662470344, -0.03536077104337938, 0.35282487033232923,
            -0.05278820977620488
          ],
          [
            0.009110615545036053, -0.11979615470408589, 0.2562172898455171,
            -0.20834841522916944
          ],
          [
            0.25361827284471783, 0.06847733389946666, 0.0620484724430813,
            0.3209866365036155
          ],
          [
            0.17142200997577983, -0.23107595441049966, 0.17055791135342926,
            0.04015436373808943
          ],
          [
            -0.14158451753695744, 0.3409283545260248, -0.12616436943315107,
            0.0989215954051155
          ],
          [
            -0.023537722163707656, 0.24373892869952, 0.15783059264165478,
            0.03591025789280822
          ]
        ]
      }
    ]
  },
  {
    "levels": [
      {
        "inputs": [
          0.05734670778559392, 0, 0, 0, 0.23937069707534264, 0.9833333333333334
        ],
        "outputs": [0, 1, 0, 0, 0, 1],
        "biases": [
          -0.11096297592916242, 0.1273790442143027, 0.3532613438508017,
          0.11668129713077194, -0.026529142239257685, -0.014803690639879378
        ],
        "weights": [
          [
            -0.18601588659440904, 0.03900997571612687, -0.005824036638693541,
            0.3167865280579926, -0.4887278887667428, 0.10016327226306938
          ],
          [
            0.07674153360618316, 0.18354821538000632, -0.3408952670602138,
            0.29512684722162796, -0.10871558776104112, 0.11362595511192475
          ],
          [
            -0.529108236286489, -0.0301526124787296, 0.48104473201205694,
            -0.08226680985712391, -0.11195875361264361, -0.3484069474789681
          ],
          [
            -0.33615137140090157, -0.2788678990519647, 0.4770594828457672,
            0.2480977387001907, -0.25976368365727853, 0.2287501210144202
          ],
          [
            -0.06603775158307124, 0.0784520086320265, -0.11866294909821852,
            0.07084466296797569, -0.13356735480006177, 0.0023656640819213915
          ],
          [
            -0.09721141930397863, 0.12245918130092952, -0.05993371601813911,
            -0.10723943694839824, -0.4172000376500077, 0.24249300016668468
          ]
        ]
      },
      {
        "inputs": [0, 1, 0, 0, 0, 1],
        "outputs": [1, 1, 1, 0],
        "biases": [
          -0.34784707902637646, -0.08147581432251534, 0.26223914196719944,
          0.24971355555463448
        ],
        "weights": [
          [
            -0.18113577179291743, -0.03600416573277287, 0.3806959464723557,
            -0.038861587825279334
          ],
          [
            0.010436823220618174, -0.09046898347308446, 0.31804640783047444,
            -0.2222005244576459
          ],
          [
            0.26329065025635756, 0.08119387596481746, 0.037497361624421896,
            0.32485276890767345
          ],
          [
            0.18683814504628507, -0.2610569283326757, 0.17428972804992235,
            0.06251801933892513
          ],
          [
            -0.11573574620868533, 0.3085234368270549, -0.1318419722903959,
            0.09128831826922441
          ],
          [
            -0.03385740697270247, 0.21650313158592208, 0.1787276846214436,
            0.034434171893803545
          ]
        ]
      }
    ]
  },
  {
    "levels": [
      {
        "inputs": [
          0.49327631654696624, 0.06369672043802799, 0, 0, 0, 0.9833333333333334
        ],
        "outputs": [0, 1, 0, 0, 0, 1],
        "biases": [
          -0.08046790522259988, 0.11697008014581978, 0.3194480056516481,
          0.11738712788772003, -0.05415999707728061, -0.028270538144549634
        ],
        "weights": [
          [
            -0.17054713410809683, 0.06946209056317391, -0.0321461073740632,
            0.30036460067141557, -0.47251160284480087, 0.09292938887846408
          ],
          [
            0.08236224601704797, 0.19298027549324046, -0.3611497729137465,
            0.25208108847012584, -0.126867238436828, 0.10910393366665734
          ],
          [
            -0.5125509966788092, -0.038257261940632656, 0.4254261054877636,
            -0.09395965624091311, -0.06770633718441335, -0.3051210430194317
          ],
          [
            -0.3066611887893148, -0.25745439785445356, 0.5040228721345753,
            0.23415739106507782, -0.2536693780233738, 0.2172056590373376
          ],
          [
            -0.08712123023509513, 0.06645019783161235, -0.10821638460506808,
            0.04244298498198099, -0.14553134209586288, 0.018805208157092655
          ],
          [
            -0.1250214164937979, 0.10369070112242965, -0.04544518895703149,
            -0.09725235220335135, -0.4229580868313621, 0.21928276332462268
          ]
        ]
      },
      {
        "inputs": [0, 1, 0, 0, 0, 1],
        "outputs": [1, 1, 1, 0],
        "biases": [
          -0.329079968897349, -0.0852709317516952, 0.28096180085149725,
          0.24684444793331997
        ],
        "weights": [
          [
            -0.17966593136848535, -0.006210074475400094, 0.40114286088322937,
            -0.06087785996000286
          ],
          [
            0.002099526041246691, -0.08794901756395271, 0.2607667119297206,
            -0.1786480429754731
          ],
          [
            0.2824049142748872, 0.08274096201989398, 0.04762523972995785,
            0.3017725347214008
          ],
          [
            0.21188772131309289, -0.24720996055924385, 0.17750666788738767,
            0.08478116045573433
          ],
          [
            -0.0915424998960808, 0.28780635459824594, -0.12593595040757918,
            0.08704122185806919
          ],
          [
            -0.01364883902493096, 0.20416163507322344, 0.18138527163140605,
            0.039689555083315106
          ]
        ]
      }
    ]
  },
  {
    "levels": [
      {
        "inputs": [
          0.04702684807681601, 0, 0, 0, 0.24908922475211936, 0.9833333333333334
        ],
        "outputs": [0, 1, 0, 0, 0, 1],
        "biases": [
          -0.09903001409333083, 0.11261922521142848, 0.33422996120996007,
          0.10251470057059164, -0.0062172846782074, -0.0073739943280842265
        ],
        "weights": [
          [
            -0.16917871887842384, 0.0543820949019278, -0.011125210609288293,
            0.30238630292443197, -0.4639985545099798, 0.10316972093582069
          ],
          [
            0.05991909326960161, 0.17864587174939456, -0.347832300820474,
            0.294102934682509, -0.12095829809920566, 0.10682389961447651
          ],
          [
            -0.5055958621757426, -0.028190660613745276, 0.4796371857813997,
            -0.09869160817085613, -0.09559474879634382, -0.33334253844728157
          ],
          [
            -0.3136134898459132, -0.27373128278265146, 0.44946961348060177,
            0.24549574639329014, -0.23554485016139848, 0.24354853357915435
          ],
          [
            -0.0692077982992185, 0.060761253980122124, -0.13358346575189772,
            0.0861257727174954, -0.14246389158025752, 0.0023489893497202555
          ],
          [
            -0.10804378455834064, 0.10548428589637512, -0.06501699286098665,
            -0.11686125835624223, -0.39738744927684266, 0.22391058743995498
          ]
        ]
      },
      {
        "inputs": [0, 1, 0, 0, 0, 1],
        "outputs": [1, 1, 1, 0],
        "biases": [
          -0.33693621645833244, -0.08858476887940067, 0.2458170483278456,
          0.2610216922878177
        ],
        "weights": [
          [
            -0.17233353760175404, -0.04238856317184135, 0.3614006160557529,
            -0.038235894559862926
          ],
          [
            0.010532894328086252, -0.08394598554662042, 0.3253904915128448,
            -0.20732896014820115
          ],
          [
            0.2696501921583191, 0.09347349087977559, 0.05343162759480355,
            0.3096868478150052
          ],
          [
            0.1736888462324201, -0.2444516421847436, 0.15114129818706115,
            0.07101845183841538
          ],
          [
            -0.0970700760222926, 0.3070584757691981, -0.14385738584735552,
            0.07922343823357397
          ],
          [
            -0.03267528308689953, 0.21746862031518185, 0.1927358284596625,
            0.030346797735329653
          ]
        ]
      }
    ]
  }
]
