{
    "levels": [
        {
            "inputs": [
                0,
                0,
                0,
                0.19828780606287288,
                0.4855549987931085
            ],
            "outputs": [
                0,
                1,
                1,
                0,
                0,
                0
            ],
            "biases": [
                0.09839487747953964,
                -0.148988584126592,
                -0.18357631853661477,
                0.3648612230156515,
                0.03807735965724796,
                0.05803832126739344
            ],
            "weights": [
                [
                    0.03168697818119062,
                    -0.1584688224962287,
                    0.5519421719530946,
                    -0.18714657039693638,
                    -0.13916629473665232,
                    -0.5545541635018063
                ],
                [
                    -0.2224244857826299,
                    -0.21210297476924928,
                    0.33445911556203856,
                    0.17790949200279207,
                    0.19461068981607887,
                    0.033040855462290145
                ],
                [
                    0.3316274529184008,
                    -0.304989866507685,
                    -0.14987363755116823,
                    -0.0071828135073962705,
                    0.21810258446898567,
                    0.16801579586202706
                ],
                [
                    0.5063974437658617,
                    -0.058476085291015056,
                    0.3228771909647197,
                    -0.05278284864481143,
                    0.2601291252647718,
                    -0.15408889216878568
                ],
                [
                    -0.04442125867754021,
                    0.19233832339357615,
                    0.12651892921091717,
                    -0.010473925062652876,
                    -0.4440848405268083,
                    -0.06474349726851014
                ]
            ]
        },
        {
            "inputs": [
                0,
                1,
                1,
                0,
                0,
                0
            ],
            "outputs": [
                1,
                0,
                0,
                0
            ],
            "biases": [
                -0.3355951299159058,
                0.1306096440690304,
                -0.12159258674024474,
                0.016495484934186084
            ],
            "weights": [
                [
                    -0.7314563041698149,
                    0.2853728080227456,
                    -0.16508472643011202,
                    -0.09534186392892813
                ],
                [
                    -0.3189652156141318,
                    -0.027166138541028007,
                    -0.08562734001382077,
                    -0.08168185442954282
                ],
                [
                    0.1431372903221611,
                    0.03980824006753367,
                    -0.10155958038213632,
                    -0.08313236828016028
                ],
                [
                    0.40463576008332813,
                    -0.17184338151030654,
                    -0.005056549288367837,
                    -0.15266295765818813
                ],
                [
                    -0.23673137435269584,
                    0.024635061628698197,
                    0.21023879737476162,
                    -0.01109391442545242
                ],
                [
                    -0.3696455282499928,
                    0.11117886949691541,
                    -0.0288819379416615,
                    -0.20699598913813005
                ]
            ]
        }
    ]
}