[
    {
        "levels": [
            {
                "inputs": [
                    0.36998419449258213,
                    0,
                    0,
                    0,
                    0,
                    0.9833333333333334
                ],
                "outputs": [
                    1,
                    0,
                    0,
                    1,
                    1,
                    1
                ],
                "biases": [
                    -0.09923043054287385,
                    0.14083796981601016,
                    0.07813113703435273,
                    0.19331544364750325,
                    0.06526368854188908,
                    -0.24236540461072895
                ],
                "weights": [
                    [
                        -0.02174124221561581,
                        -0.07995849399659619,
                        -0.11564469998237559,
                        -0.14275282899423108,
                        0.07838520515995889,
                        -0.04700538245244805
                    ],
                    [
                        -0.2385777097799062,
                        0.008954870197166627,
                        -0.07908814262238138,
                        -0.13682280123817644,
                        -0.001553387384977286,
                        -0.2092664775892333
                    ],
                    [
                        -0.037433097761470524,
                        0.1730594369445111,
                        0.15018809238767641,
                        0.10008921154815416,
                        0.00916068568248904,
                        -0.2652688947003257
                    ],
                    [
                        0.023587931381698228,
                        -0.19853981367254164,
                        0.28549968587400976,
                        0.0071733170528671675,
                        0.11621258427815365,
                        -0.11582387058282992
                    ],
                    [
                        0.11599505906035862,
                        0.18847178578083862,
                        0.010839934184253698,
                        0.02086375070143054,
                        -0.2658247445446952,
                        -0.00022364153186044122
                    ],
                    [
                        -0.013359293956176216,
                        -0.1929279844898158,
                        0.06284887187662161,
                        0.2777876613444904,
                        0.23551778992470623,
                        -0.13544816331981446
                    ]
                ]
            },
            {
                "inputs": [
                    1,
                    0,
                    0,
                    1,
                    1,
                    1
                ],
                "outputs": [
                    1,
                    0,
                    0,
                    0
                ],
                "biases": [
                    -0.03161931082351121,
                    -0.14373037851744214,
                    -0.03591473129823337,
                    -0.1935863076670451
                ],
                "weights": [
                    [
                        0.08034923673850895,
                        -0.027097658178574603,
                        0.04740987108809324,
                        -0.31572215655183106
                    ],
                    [
                        -0.01924965994126393,
                        -0.09302151299958344,
                        0.07568183406021364,
                        -0.036424541425754596
                    ],
                    [
                        -0.349079704723956,
                        0.2859972509636947,
                        -0.2437340334018352,
                        0.10129209201030745
                    ],
                    [
                        0.038919293816328394,
                        -0.11095486296628881,
                        -0.2859080636921484,
                        0.07060630443271547
                    ],
                    [
                        0.10343785921628457,
                        -0.27946493365536706,
                        0.019613832164930768,
                        -0.11967660607485947
                    ],
                    [
                        0.14970906941591083,
                        -0.011729681427532467,
                        0.12454075945881825,
                        -0.36763384948841404
                    ]
                ]
            }
        ]
    },
    {
        "levels": [
            {
                "inputs": [
                    0.5275513277418833,
                    0.16157408431266607,
                    0,
                    0.22537534792701008,
                    0,
                    0.9666666666666668
                ],
                "outputs": [
                    1,
                    0,
                    0,
                    0,
                    1,
                    1
                ],
                "biases": [
                    -0.07117133922555988,
                    0.12634871032245437,
                    0.10079250474243115,
                    0.2226437847447899,
                    0.05455348447771003,
                    -0.35079847648162327
                ],
                "weights": [
                    [
                        0.03235146011629437,
                        -0.0787695904158607,
                        -0.10232722096632373,
                        -0.13375187226213991,
                        0.11973715427331905,
                        -0.07100147778022715
                    ],
                    [
                        -0.28139576895140145,
                        -0.027356046304353572,
                        -0.07604936533531162,
                        -0.07643520665194184,
                        0.008223663264312515,
                        -0.16803908486744493
                    ],
                    [
                        -0.06529897023366285,
                        0.19538388819542046,
                        0.10101891753397668,
                        0.07741878771924812,
                        0.030188442541251147,
                        -0.269433348131783
                    ],
                    [
                        -0.01172970232232428,
                        -0.2625684240916676,
                        0.25749600664861494,
                        0.02585614163983462,
                        0.14563931688764314,
                        -0.04719845243384935
                    ],
                    [
                        0.17294647761030763,
                        0.1975293531352637,
                        -0.028498969657165217,
                        0.024268520062320574,
                        -0.3252111371708477,
                        -0.03875827079644645
                    ],
                    [
                        0.022683681338399098,
                        -0.22562321686108183,
                        0.10888483419315885,
                        0.30829038023538113,
                        0.2602855476246685,
                        -0.1136653145076299
                    ]
                ]
            },
            {
                "inputs": [
                    1,
                    0,
                    0,
                    0,
                    1,
                    1
                ],
                "outputs": [
                    1,
                    0,
                    1,
                    0
                ],
                "biases": [
                    0.02831349153867019,
                    -0.21132889183148482,
                    -0.01166785079856314,
                    -0.1720312014312683
                ],
                "weights": [
                    [
                        0.05105862404266793,
                        0.015352993242114605,
                        0.012125109044765122,
                        -0.38918710533610484
                    ],
                    [
                        -0.04496290066726474,
                        -0.11474488908635845,
                        0.03744297835615164,
                        0.03752042562516536
                    ],
                    [
                        -0.3452114352418309,
                        0.33683857646724485,
                        -0.2835854708264395,
                        0.21339782643964234
                    ],
                    [
                        -0.01257520825255419,
                        -0.12735520592787236,
                        -0.3189243634648005,
                        0.057553179446791114
                    ],
                    [
                        0.06415264834349327,
                        -0.25541444798778595,
                        -0.02246470015450682,
                        -0.1636892197176971
                    ],
                    [
                        0.11409676740417295,
                        -0.034245818256366176,
                        0.1705345269912304,
                        -0.3826606744419275
                    ]
                ]
            }
        ]
    }
]