{
    "levels": [
        {
            "inputs": [
                0.36998419449258213,
                0,
                0,
                0,
                0,
                0.9833333333333334
            ],
            "outputs": [
                1,
                0,
                0,
                1,
                1,
                1
            ],
            "biases": [
                -0.09923043054287385,
                0.14083796981601016,
                0.07813113703435273,
                0.19331544364750325,
                0.06526368854188908,
                -0.24236540461072895
            ],
            "weights": [
                [
                    -0.02174124221561581,
                    -0.07995849399659619,
                    -0.11564469998237559,
                    -0.14275282899423108,
                    0.07838520515995889,
                    -0.04700538245244805
                ],
                [
                    -0.2385777097799062,
                    0.008954870197166627,
                    -0.07908814262238138,
                    -0.13682280123817644,
                    -0.001553387384977286,
                    -0.2092664775892333
                ],
                [
                    -0.037433097761470524,
                    0.1730594369445111,
                    0.15018809238767641,
                    0.10008921154815416,
                    0.00916068568248904,
                    -0.2652688947003257
                ],
                [
                    0.023587931381698228,
                    -0.19853981367254164,
                    0.28549968587400976,
                    0.0071733170528671675,
                    0.11621258427815365,
                    -0.11582387058282992
                ],
                [
                    0.11599505906035862,
                    0.18847178578083862,
                    0.010839934184253698,
                    0.02086375070143054,
                    -0.2658247445446952,
                    -0.00022364153186044122
                ],
                [
                    -0.013359293956176216,
                    -0.1929279844898158,
                    0.06284887187662161,
                    0.2777876613444904,
                    0.23551778992470623,
                    -0.13544816331981446
                ]
            ]
        },
        {
            "inputs": [
                1,
                0,
                0,
                1,
                1,
                1
            ],
            "outputs": [
                1,
                0,
                0,
                0
            ],
            "biases": [
                -0.03161931082351121,
                -0.14373037851744214,
                -0.03591473129823337,
                -0.1935863076670451
            ],
            "weights": [
                [
                    0.08034923673850895,
                    -0.027097658178574603,
                    0.04740987108809324,
                    -0.31572215655183106
                ],
                [
                    -0.01924965994126393,
                    -0.09302151299958344,
                    0.07568183406021364,
                    -0.036424541425754596
                ],
                [
                    -0.349079704723956,
                    0.2859972509636947,
                    -0.2437340334018352,
                    0.10129209201030745
                ],
                [
                    0.038919293816328394,
                    -0.11095486296628881,
                    -0.2859080636921484,
                    0.07060630443271547
                ],
                [
                    0.10343785921628457,
                    -0.27946493365536706,
                    0.019613832164930768,
                    -0.11967660607485947
                ],
                [
                    0.14970906941591083,
                    -0.011729681427532467,
                    0.12454075945881825,
                    -0.36763384948841404
                ]
            ]
        }
    ]
}