{
   "levels":[
      {
         "inputs":[
            0.6491576197002995,
            0,
            0,
            0.09965835296350767,
            0.47368920583221574
         ],
         "outputs":[
            1,
            1,
            1,
            0,
            0,
            0
         ],
         "biases":[
            0.06808025532707918,
            -0.09175326299220438,
            -0.15477634941445603,
            0.2648271100355811,
            0.08511463602860048,
            0.053384058477769857
         ],
         "weights":[
            [
               0.06652804171096241,
               -0.1004360491875359,
               0.4465019361175621,
               -0.12449904161127931,
               -0.22468681793420858,
               -0.4311840602009477
            ],
            [
               -0.25630534320131637,
               -0.2593785148555263,
               0.23527968142289485,
               0.13079413883708102,
               0.1727558518524624,
               -0.06258555138604543
            ],
            [
               0.38130068284451857,
               -0.27104722376475954,
               -0.13365977859040984,
               0.013348090197471286,
               0.1707087078460245,
               0.08730210849702172
            ],
            [
               0.520871187430471,
               -0.022462319058157716,
               0.27543911793840314,
               0.03863941008689548,
               0.1948135253364865,
               -0.19259117396259648
            ],
            [
               -0.008959091908105184,
               0.26467473508495676,
               0.057387472465998526,
               0.09055463810088125,
               -0.48308051923766887,
               -0.04750346621897747
            ]
         ]
      },
      {
         "inputs":[
            1,
            1,
            1,
            0,
            0,
            0
         ],
         "outputs":[
            0,
            1,
            0,
            0
         ],
         "biases":[
            -0.2141343964090462,
            0.10221796131087724,
            -0.08486076456281028,
            -0.03452528933101294
         ],
         "weights":[
            [
               -0.5744514874201951,
               0.251894035643129,
               -0.13637215234786768,
               -0.09794486347926734
            ],
            [
               -0.20219751935095126,
               -0.013446028677415489,
               -0.0924463461418558,
               -0.008817257143601556
            ],
            [
               0.16654722313601364,
               -0.05272950727106779,
               -0.06631640594634625,
               -0.14637792779917763
            ],
            [
               0.4171991530275657,
               -0.13024134563032813,
               -0.09192566977680998,
               -0.040583830606482435
            ],
            [
               -0.29876633116235013,
               0.09122215824459848,
               0.11495263043457901,
               -0.073853907782816
            ],
            [
               -0.25468448479878436,
               0.14388890872385687,
               0.05409451172988808,
               -0.23495604886469357
            ]
         ]
      }
   ]
}