{"levels":[{"inputs":[0.06356759908841236,0,0,0,0.21849824609247248],"outputs":[0,1,1,0,0,0],"biases":[0.04500341041478474,-0.056978292756164534,-0.21177252252541792,0.32357151248335325,-0.057845652181381,0.10440805163033413],"weights":[[0.0029847082787029904,-0.13412458604239214,0.49235763668811683,-0.21731967114381606,-0.16796217487463444,-0.528289309748431],[-0.16173616812522962,-0.2017262294414586,0.3721955944772254,0.2535817656394993,0.1845665720238102,0.057863273473584304],[0.23159066151946284,-0.30656504674222046,-0.1862004599358066,-0.10528973933498272,0.1439734543622801,0.24391190247719052],[0.5312617139351833,-0.07982150940811802,0.2785262804077882,-0.10187187126576708,0.3335305903300307,-0.038939908383894925],[0.011492607054881546,0.22776442877240907,0.02575897399824996,-0.004682223084504564,-0.4551468187960578,-0.1498246438377394]]},{"inputs":[0,1,1,0,0,0],"outputs":[1,0,0,0],"biases":[-0.34143656441404574,0.1747275012346039,-0.03831274084523875,0.03677530574567868],"weights":[[-0.6436405708717637,0.25327199244768933,-0.23641933438735085,-0.12169629558665385],[-0.3212666695362224,0.06609057350306667,-0.08674432694224352,-0.1576344355617672],[0.13706240230827768,-0.050046697765298145,-0.1528350859674043,0.005069563190823634],[0.4192307142235835,-0.24391222406403898,0.03986428029130326,-0.15419773898273986],[-0.13101930465795497,0.056478515498323625,0.13803070563064235,0.01129822080020284],[-0.4137937242253954,0.05180567990991897,0.07374014900351758,-0.2139504928341968]]}]}