{
    "levels": [
        {
            "inputs": [
                0.48295698229531736,
                0.04462907702954577,
                0,
                0,
                0,
                0.9833333333333334
            ],
            "outputs": [
                0,
                1,
                0,
                0,
                0,
                1
            ],
            "biases": [
                -0.08440627951293775,
                0.14308006940053533,
                0.3462180865173371,
                0.10763150316710719,
                -0.017475957361857038,
                -0.027962913725110228
            ],
            "weights": [
                [
                    -0.2014446161050233,
                    0.04358870196154899,
                    -0.008469579009619706,
                    0.2698899683722947,
                    -0.4966445668870617,
                    0.09952694124188502
                ],
                [
                    0.07257094627561687,
                    0.20346702901652527,
                    -0.3381448067076021,
                    0.27817017565059027,
                    -0.10339022006771766,
                    0.12135812827234253
                ],
                [
                    -0.5137333351497669,
                    -0.04771267723904668,
                    0.46204348144393487,
                    -0.06912031121938082,
                    -0.08299363397822525,
                    -0.2669840805891281
                ],
                [
                    -0.3248451967556379,
                    -0.23856468542439344,
                    0.4722463460238423,
                    0.23089465496983166,
                    -0.2580612096653623,
                    0.2310356305951086
                ],
                [
                    -0.08766740272353762,
                    0.06632303259530464,
                    -0.10192024353620462,
                    0.05529910142853597,
                    -0.14806087307141047,
                    0.040287817316557784
                ],
                [
                    -0.12432752300062237,
                    0.14024709464350024,
                    -0.036633724417489105,
                    -0.08213161150888992,
                    -0.43259948751908284,
                    0.24303322326554094
                ]
            ]
        },
        {
            "inputs": [
                0,
                1,
                0,
                0,
                0,
                1
            ],
            "outputs": [
                1,
                1,
                1,
                0
            ],
            "biases": [
                -0.32672901533133014,
                -0.08929735283708504,
                0.24325700358131516,
                0.22360407758503797
            ],
            "weights": [
                [
                    -0.16412320878336195,
                    -0.019154002209444323,
                    0.3680587275719516,
                    -0.013447161782922365
                ],
                [
                    0.020157973779372198,
                    -0.11582263683075059,
                    0.3032675576871036,
                    -0.2149801486379845
                ],
                [
                    0.2640027645919454,
                    0.06498150953058698,
                    0.060055890212197004,
                    0.3001976207496048
                ],
                [
                    0.17278245949765952,
                    -0.24970731446118344,
                    0.1884517158782165,
                    0.03862260417059938
                ],
                [
                    -0.09100279420732475,
                    0.3014365899678643,
                    -0.13855528042197263,
                    0.0784201340907357
                ],
                [
                    -0.03634033873340908,
                    0.1898522820946354,
                    0.1708360478790238,
                    0.06552053725585136
                ]
            ]
        }
    ]
}