{
  "brain": {
    "levels": [
      {
        "inputs": [
          0.49031410570398637,
          0.05814562605119078,
          0,
          0,
          0,
          0.9857142857142858
        ],
        "outputs": [
          1,
          1,
          1,
          1,
          0,
          1
        ],
        "biases": [
          0.1689655533280032,
          -0.16589236943529578,
          -0.3730899245510425,
          0.003600248353438102,
          -0.04437982619686419,
          -0.1330870483589774
        ],
        "weights": [
          [
            0.16175937238470253,
            -0.02335887246936791,
            -0.12046554060165707,
            0.2318700202481646,
            0.17037591190139617,
            -0.26979285978692097
          ],
          [
            0.1070067332694707,
            0.12344516364371996,
            0.013764194148917261,
            0.1864265760667578,
            0.11821717689265207,
            -0.30542086304844074
          ],
          [
            -0.008659245908585966,
            -0.2650578280280754,
            0.0929695008444944,
            0.006967643390465406,
            0.11454203472262287,
            -0.14659961454534853
          ],
          [
            -0.21736240971547302,
            -0.2604514700953752,
            -0.15214877304059943,
            0.13529079580371306,
            -0.05949374674545188,
            0.09590397719787203
          ],
          [
            -0.3200545149764971,
            -0.0002067354643642029,
            -0.017482774942070248,
            0.33668809491449303,
            0.13717744475306304,
            0.08616128569904163
          ],
          [
            0.10390075481255025,
            -0.16388375609550765,
            0.13596823720925807,
            -0.08861406294124817,
            -0.18823522148919264,
            0.02989292353472353
          ]
        ]
      },
      {
        "inputs": [
          1,
          1,
          1,
          1,
          0,
          1
        ],
        "outputs": [
          1,
          1,
          1,
          0
        ],
        "biases": [
          0.0579683811471003,
          0.23748232568168812,
          -0.172778695888261,
          0.26516241605247637
        ],
        "weights": [
          [
            0.09281928645756127,
            0.0796015162396086,
            0.14614944551960346,
            0.14734347169309492
          ],
          [
            0.16856708221533676,
            -0.2930360010449886,
            0.2176394522256367,
            -0.08713977000230366
          ],
          [
            0.15055114351642224,
            0.040286342324068455,
            -0.034348774608829374,
            -0.14428041234219244
          ],
          [
            -0.052438726391863186,
            0.08490005606812105,
            0.05580075104138918,
            0.09032282218190307
          ],
          [
            0.017932276812648855,
            -0.09709584372416277,
            -0.11146262935544737,
            0.28427727342530273
          ],
          [
            0.2916466139829531,
            0.35011613760487725,
            -0.38974419127136994,
            -0.2267930645671744
          ]
        ]
      }
    ]
  },
  "maxSpeed": 3.5,
  "friction": 0.05,
  "acceleration": 0.2,
  "width": 30,
  "height": 50,
  "hiddenLayers": [
    6
  ],
  "sensor": {
    "rayCount": 5,
    "raySpread": 1.57,
    "rayLength": 150,
    "rayOffset": 0
  }
}