{
  "brain": {
    "levels": [
      {
        "inputs": [
          0,
          0,
          0,
          0.38598803728256514,
          0.6677265137985168,
          0.9833333333333334
        ],
        "outputs": [
          1,
          0,
          0,
          1,
          0,
          1
        ],
        "biases": [
          0.15965169020487474,
          -0.10929983625495926,
          -0.45602130641675265,
          -0.4196079348532338,
          0.35719992171600723,
          -0.022008047273425757
        ],
        "weights": [
          [
            -0.2932482058931709,
            -0.02668877651399923,
            -0.003694750286300317,
            -0.22281002028908137,
            0.09288589815098977,
            -0.25274652103774975
          ],
          [
            -0.0536084006749537,
            0.17107689882912747,
            0.017419617439101392,
            -0.27644867481573704,
            0.31842915491462287,
            -0.22100350002263705
          ],
          [
            -0.30317783958342814,
            -0.0405194900091308,
            -0.1856819834907979,
            -0.3179094050290465,
            -0.13362195176195213,
            0.023528446583928428
          ],
          [
            -0.09665775759222178,
            0.019407004646492615,
            -0.077143972655579,
            0.022284036758713682,
            0.06807836971559081,
            -0.028129680222497
          ],
          [
            0.25920711366954474,
            0.19584411827173276,
            -0.22216394991614732,
            0.0009571282266022801,
            -0.18741440396751746,
            0.40491466403848714
          ],
          [
            0.04343858303308769,
            -0.4466811986039251,
            -0.2843190709828679,
            -0.2996036988140064,
            0.11403014867453619,
            -0.17712289651481583
          ]
        ]
      },
      {
        "inputs": [
          1,
          0,
          0,
          1,
          0,
          1
        ],
        "outputs": [
          0,
          1,
          1,
          0
        ],
        "biases": [
          -0.2971348808623854,
          0.08019009751394938,
          0.2930283919316158,
          0.0005765968604930921
        ],
        "weights": [
          [
            -0.058376995757349504,
            0.21049107623564403,
            0.2195447203716442,
            -0.21834844187530011
          ],
          [
            0.2702592757772614,
            0.3509176342551962,
            -0.2978639194951333,
            -0.17302936307635158
          ],
          [
            0.620407917569937,
            0.04886867834782754,
            0.4121514409110437,
            0.048741709614692846
          ],
          [
            -0.17323910936711873,
            0.3595171035985302,
            -0.1266705245368951,
            -0.08757516858094314
          ],
          [
            -0.12141301172436915,
            0.19115803826338434,
            0.38683317035436926,
            0.03720478055243824
          ],
          [
            -0.19236983994473522,
            0.1731450501475277,
            0.20571444351382737,
            -0.027608728045307257
          ]
        ]
      }
    ]
  },
  "maxSpeed": 3,
  "friction": 0.05,
  "acceleration": 0.2,
  "width": 30,
  "height": 50,
  "hiddenLayers": [
    6
  ],
  "sensor": {
    "rayCount": 5,
    "raySpread": 1.57,
    "rayLength": 150,
    "rayOffset": 0
  }
}