{
  "brain": {
    "levels": [
      {
        "inputs": [
          0.408559728728192,
          0,
          0,
          0,
          0.3181409830481793,
          0.9857142857142858
        ],
        "outputs": [
          0,
          1,
          0,
          0,
          0,
          0
        ],
        "biases": [
          0.2603570543480596,
          -0.26343823449792925,
          -0.05952156695931453,
          0.12742313783725584,
          -0.0074514874793469195,
          -0.0849506540051166
        ],
        "weights": [
          [
            -0.1285523775067922,
            0.14808615896903587,
            -0.1040211419626299,
            -0.055760984580186204,
            0.0056528087629674,
            -0.0931960721284566
          ],
          [
            0.2243249671845177,
            -0.08958536683538383,
            -0.16148234723107424,
            0.3355041404326078,
            0.024947904449782614,
            -0.1720612611071264
          ],
          [
            -0.07845499655997223,
            0.03176501082184721,
            -0.07167644007094554,
            -0.19291967612622735,
            -0.11920219657311318,
            0.28473449926541305
          ],
          [
            -0.2214159893555663,
            -0.2780063227058201,
            0.01094018259173378,
            0.40694354557961704,
            -0.20447595717032602,
            0.24892607940560849
          ],
          [
            0.18249613660019537,
            -0.19861391932371414,
            -0.03491336967717424,
            0.31144875144590317,
            -0.1685074306897456,
            0.32565538630694313
          ],
          [
            0.014165115587736449,
            0.13298948565649094,
            -0.00654900326580117,
            0.0016198576653689116,
            -0.24504117481071458,
            -0.30848301862450256
          ]
        ]
      },
      {
        "inputs": [
          0,
          1,
          0,
          0,
          0,
          0
        ],
        "outputs": [
          1,
          0,
          1,
          0
        ],
        "biases": [
          0.10288263909798914,
          -0.044278304175707724,
          -0.13757042102681843,
          0.24242638546778306
        ],
        "weights": [
          [
            0.20653749396810026,
            0.12342404782794768,
            0.29213151791816816,
            -0.10401224722135709
          ],
          [
            0.4094038558978293,
            -0.046076909690927634,
            0.0004022201476411441,
            0.12832947633590733
          ],
          [
            0.11551748375281054,
            0.041985685209452187,
            -0.15290701060586417,
            -0.2729964086942364
          ],
          [
            -0.010791874117615119,
            -0.06374248575574545,
            0.01179498244811393,
            -0.01152333454772092
          ],
          [
            -0.044734000984817945,
            0.038114380980404594,
            -0.14280334487764845,
            0.2061636987584186
          ],
          [
            0.19703672289082957,
            0.5023278719952179,
            -0.3678875341939634,
            -0.06944351088841393
          ]
        ]
      }
    ]
  },
  "maxSpeed": 3.5,
  "friction": 0.05,
  "acceleration": 0.2,
  "width": 30,
  "height": 50,
  "hiddenLayers": [
    6
  ],
  "sensor": {
    "rayCount": 5,
    "raySpread": 1.57,
    "rayLength": 150,
    "rayOffset": 0
  }
}