{
  "brain": {
    "levels": [
      {
        "inputs": [
          0.36463240781761685,
          0.477718081539131,
          0.3458174633651969,
          0,
          0,
          0,
          0,
          0.4065745849446446,
          0.6023368361688619,
          0.5443733826717665,
          0.376165959134399,
          0.99
        ],
        "outputs": [
          1,
          0,
          1,
          0,
          0,
          0,
          0,
          1,
          1,
          1,
          1,
          0,
          1,
          1,
          0,
          1
        ],
        "biases": [
          -0.12446102915445117,
          0.3202801260086042,
          -0.15155960331617138,
          -0.2565237682939236,
          -0.05223161831128957,
          0.02845099195240163,
          0.13772177199825994,
          0.15036712015704232,
          -0.212258156519303,
          0.22520222469873735,
          -0.1906386029576844,
          0.24159381271645813,
          0.1629884978913104,
          -0.04188045250245162,
          0.014583196672996346,
          -0.19119903112080616
        ],
        "weights": [
          [
            0.2545488084670679,
            0.10081208901502985,
            0.129834670309612,
            0.0659609880186472,
            -0.2725799561949252,
            -0.062219513301956436,
            -0.2361131065808984,
            -0.1329905902276951,
            -0.22912693092221945,
            0.3017011647026683,
            -0.010791225664488958,
            0.02904005315938739,
            0.20916095346410452,
            -0.1214284099553691,
            0.04225043460168347,
            -0.18061487737413823
          ],
          [
            -0.02565571656939272,
            -0.12900895166657336,
            0.13923180470812865,
            -0.00925224214535764,
            0.05214829544622654,
            0.07893177799172021,
            -0.027409143470096355,
            0.3104688449150883,
            0.20178704722520743,
            -0.35992504943569426,
            -0.07613885003854118,
            0.056112624034921205,
            -0.08318372341043687,
            -0.23461437495959764,
            -0.32361543454978803,
            0.08649538039024507
          ],
          [
            0.2590068563503833,
            0.2987373724347089,
            0.11358770374864557,
            -0.13303958182435785,
            0.12346981068505686,
            -0.18287209663327517,
            -0.00832114720220866,
            0.09989302243210821,
            -0.03894789353646924,
            -0.27379311153118224,
            0.14719003750883022,
            0.002811114099580743,
            0.13374044400871593,
            0.14958760581725633,
            -0.03137638119877124,
            -0.13756233624922307
          ],
          [
            0.1425024075939862,
            -0.4361698568567917,
            0.2516956522052697,
            0.2635851544715581,
            -0.21820709249053952,
            0.09072384476461035,
            -0.16886320776216807,
            -0.07586715295039403,
            -0.07535452792020536,
            0.022450400274855398,
            -0.005931472369428689,
            -0.0018885764931513283,
            -0.12761856182067013,
            0.0008704896842841557,
            0.17475532569684135,
            -0.13101872153656816
          ],
          [
            -0.09090778956187304,
            -0.05750336766725707,
            -0.18083382946635412,
            -0.1680202945693739,
            0.09067434732622558,
            -0.16102943965674538,
            -0.2759969881833791,
            -0.07516464030716447,
            0.195269617851419,
            -0.053673779708217684,
            -0.08645109274367797,
            -0.036987741293686385,
            0.03562608914784536,
            -0.23408026189413644,
            0.07962914598155298,
            -0.19085180619621078
          ],
          [
            -0.059643344058701975,
            -0.18522565285596465,
            -0.07587110266938923,
            -0.08413479857616583,
            0.12853621540066235,
            -0.15106059317177445,
            0.029821477703095522,
            -0.2193397500130121,
            0.07416190749009378,
            0.16081619010309775,
            0.18281572835012963,
            -0.050331385603693046,
            0.26654141096110323,
            -0.1525041163944642,
            0.15226827686376135,
            0.1676760972744992
          ],
          [
            -0.020903792396912126,
            0.007400455333687356,
            0.014000289245999518,
            -0.30063054878394624,
            0.15908237853053742,
            -0.12214417148787654,
            -0.13679856431894866,
            0.043277391027167225,
            0.01752884151300735,
            0.11460254664446563,
            -0.10899357406373508,
            -0.18671724384858848,
            -0.10107430290717007,
            -0.16495376610365742,
            0.2427214874962867,
            -0.12762020993702122
          ],
          [
            0.13588080530640803,
            0.004577804915110756,
            0.20124801565855416,
            -0.30203745270436855,
            -0.4065615709277629,
            -0.1481157232215799,
            0.30672339922595604,
            -0.11131360077605178,
            0.18033813851645972,
            0.17697602767871415,
            0.08244363894432086,
            0.14081771770840815,
            0.24227585528200732,
            0.09289840806723595,
            -0.03583618447053066,
            0.4971623099470798
          ],
          [
            0.10744070650453524,
            -0.20292417288256503,
            -0.16092047880712881,
            -0.20670991188816867,
            -0.13081305538560778,
            0.15298758847927377,
            -0.16615198316858282,
            0.25246489129674704,
            -0.22534473942777497,
            0.2143450512510965,
            -0.24683945387842296,
            0.0016442313407445328,
            0.14753358142200867,
            0.2054708889972327,
            -0.24921151593905838,
            -0.2945454000578088
          ],
          [
            -0.2788105955738539,
            -0.3069712262292316,
            0.08784456142011057,
            -0.13254497095525752,
            0.08597828563972806,
            -0.05038414466986162,
            -0.05398672205131172,
            0.025036961701390165,
            0.1787003963874304,
            0.024998689975185145,
            0.2772054302460374,
            0.08401595330822838,
            0.2278666821174887,
            -0.1231259130653337,
            -0.01330071639403671,
            -0.019445297505868972
          ],
          [
            0.08313007109671962,
            -0.1022371468259802,
            -0.13674550754165699,
            0.04553922979741702,
            -0.14530172474108616,
            0.10926735736400202,
            0.05998601866940573,
            -0.02927936794501472,
            -0.13148283759240037,
            -0.04681596164724118,
            -0.029411399966730548,
            -0.21619811754873525,
            -0.1196359841247699,
            0.37403721528865075,
            -0.17891744806690643,
            0.18209172000572776
          ],
          [
            -0.11747718320026246,
            0.056058852496958675,
            -0.028849323066587534,
            -0.2545693269898042,
            -0.21078633553863216,
            -0.03064547026010634,
            -0.02884385155848243,
            0.03082604675670817,
            0.08755411825578388,
            0.1891960696434496,
            0.15391086712438345,
            0.11229529019443937,
            -0.0033049238268282044,
            0.22836575653359514,
            -0.2741157935332709,
            0.17268651034899457
          ]
        ]
      },
      {
        "inputs": [
          1,
          0,
          1,
          0,
          0,
          0,
          0,
          1,
          1,
          1,
          1,
          0,
          1,
          1,
          0,
          1
        ],
        "outputs": [
          1,
          1,
          0,
          0
        ],
        "biases": [
          -0.11164933179805403,
          0.01128719352981955,
          -0.11121087146006982,
          0.0866972413854662
        ],
        "weights": [
          [
            0.24063847568675795,
            -0.044198513059077196,
            0.03253973894979581,
            -0.28625055101208824
          ],
          [
            -0.1363788009180706,
            -0.04613436187478549,
            0.18151620855862222,
            -0.2370147115037246
          ],
          [
            0.3360539413334283,
            -0.09478565903216327,
            0.08783141174238732,
            -0.041115026103302095
          ],
          [
            0.08558269336580797,
            -0.09100266993808817,
            0.23246106243200587,
            0.14151465902357255
          ],
          [
            -0.012888058578296517,
            0.08146534469680256,
            -0.0002911165915239905,
            -0.13821951056215492
          ],
          [
            0.23677703911669198,
            0.028339441069906615,
            -0.1815355122277306,
            -0.13004034911029738
          ],
          [
            0.3294929670904812,
            -0.15168223929550137,
            -0.13044414284063358,
            0.20642543033047364
          ],
          [
            -0.13279512362433435,
            0.13063521878904608,
            0.04369952323847473,
            -0.156437659715039
          ],
          [
            -0.08216939472454955,
            0.0707011969213285,
            -0.05173370647470124,
            -0.2100288937789874
          ],
          [
            0.17689854057883525,
            0.07685408203917822,
            -0.3254910165235074,
            -0.00811751599959934
          ],
          [
            0.15266353867192678,
            -0.12057704214814534,
            0.05362686483156362,
            0.0700639922719691
          ],
          [
            -0.2757709433510327,
            0.20708258038188548,
            -0.15502036646587028,
            0.22859205896641066
          ],
          [
            0.1263321429885698,
            0.031610674609256845,
            0.04998151423648346,
            -0.05565433412273077
          ],
          [
            -0.08887839345235925,
            -0.06880804992369777,
            -0.05259879890438671,
            0.2637772473821893
          ],
          [
            -0.04404554113236794,
            0.1370871297519347,
            -0.02046785167613535,
            -0.007460754473208223
          ],
          [
            -0.27290427635527914,
            0.22363751475940447,
            -0.05432928609257001,
            -0.26837444221026097
          ]
        ]
      }
    ]
  },
  "maxSpeed": 5,
  "friction": 0.05,
  "acceleration": 0.2,
  "width": 30,
  "height": 50,
  "hiddenLayers": [
    16
  ],
  "sensor": {
    "rayCount": 11,
    "raySpread": 2,
    "rayLength": 150,
    "rayOffset": 0
  }
}