{
  "brain": {
    "levels": [
      {
        "inputs": [
          0.88368037111244,
          0.8717880846921562,
          0.8531564073227734,
          0.8230880030947119,
          0.7704206854529718,
          0.6612142578940792,
          0.32198955810447405,
          0,
          0.08640697828106025,
          0.5316546535270608,
          0.6798111069307152,
          0.7521176614954255,
          0.7936345817805395,
          0.8194280711546669,
          0.8358953633061137,
          0.8562500000000008
        ],
        "outputs": [
          0,
          0,
          1,
          0,
          0,
          0,
          0,
          0,
          1,
          1,
          0,
          0,
          1,
          1,
          0,
          1
        ],
        "biases": [
          -0.21334009300066062,
          0.4593034425190294,
          -0.24801124814840075,
          0.43457439670316717,
          0.30267011526323806,
          0.3227598634147974,
          -0.12869184023036742,
          -0.1649110587083606,
          -0.20050756958606378,
          0.14834099611392085,
          -0.40197375072996644,
          -0.04268672290144793,
          -0.2259574114102964,
          -0.30464695982208057,
          -0.031886555709568165,
          0.35081985622053574
        ],
        "weights": [
          [
            -0.05418917746108444,
            0.07272792190106006,
            -0.14261008553701301,
            -0.01808058783730264,
            -0.052523072367659324,
            -0.0016485979458983613,
            0.019189384982607666,
            -0.21236678099834738,
            0.21414168827456276,
            0.0009664235646221486,
            -0.5614575779250959,
            -0.14531790829761954,
            -0.5040693100642373,
            0.3658874499959143,
            -0.0749855818300166,
            0.0877091400723276
          ],
          [
            0.0047249987872288735,
            -0.07153771097911096,
            0.29597414720722626,
            -0.30685326694459136,
            0.12209806996286797,
            0.2788476970134801,
            -0.2731603072887021,
            -0.08483103423336978,
            0.10500278960772905,
            0.3921101748147433,
            0.11293275173492176,
            0.027798695441583643,
            0.2501029634168169,
            0.1789341630374248,
            -0.11361995278291746,
            -0.2404357578729043
          ],
          [
            -0.049075310674941086,
            0.41172736477963096,
            -0.0056893117218751454,
            -0.22316468495424657,
            -0.5116820694311144,
            0.31683493657773576,
            -0.19167876698003972,
            -0.10965706579175127,
            0.16102022199754615,
            0.05885139983205631,
            0.05303047530077043,
            0.02695977290413054,
            0.05543977402742964,
            -0.3573381334485777,
            0.08042331599078686,
            0.16943860571164576
          ],
          [
            -0.06190969688288431,
            0.16943019087640177,
            0.3320669073501941,
            0.013234227715176138,
            -0.031210942404996334,
            0.27668159243439794,
            0.2611261947335698,
            -0.21702190375321467,
            0.15456409406472088,
            -0.2935420315267195,
            -0.07036473029399896,
            -0.20327176853534423,
            -0.011028124046722154,
            0.28558626782823937,
            0.30826670864093914,
            -0.0026371113141368807
          ],
          [
            0.15417719641869845,
            0.3514688648313512,
            0.38123109209048206,
            0.15796742897434432,
            0.030173841566532043,
            -0.11902260871994674,
            0.07108946707646599,
            0.07729714747153102,
            -0.37881888887482346,
            0.11083211568199464,
            0.0813653114845824,
            -0.5475193839648236,
            0.21070956103264965,
            0.3958578448227258,
            -0.46763960293714174,
            -0.09110596367671317
          ],
          [
            -0.037455577295008036,
            0.3141261913564326,
            0.04446466366755142,
            0.2436940102398415,
            -0.0517937134621403,
            -0.3466844993325902,
            0.1340421505266704,
            0.016575076096300517,
            0.5019709813831135,
            0.02350481810726955,
            0.4118214266880547,
            -0.10493967311111341,
            -0.41508411937589307,
            -0.3635576460412024,
            0.4665838190083925,
            0.39685540660502006
          ],
          [
            -0.0013261923958214211,
            0.14509927260161137,
            -0.04025556374421577,
            0.10686169899492633,
            -0.06332196482551004,
            -0.004187192548887386,
            0.20013533271483594,
            0.01750663896682117,
            0.467978846789465,
            0.12745804852525217,
            0.0774553789057382,
            -0.40869863323107397,
            -0.052535245867834535,
            0.030170933927431476,
            0.005871971210869936,
            0.1292080552725433
          ],
          [
            0.11408843793456111,
            0.04913784159657397,
            0.22985495914993387,
            -0.07642390208756054,
            0.07797551984316348,
            -0.17197774931049578,
            -0.030667978595574144,
            0.05137900916660132,
            -0.42531459483740347,
            0.14961189571074596,
            0.023993820128140372,
            0.08725696156919892,
            -0.009176859981572805,
            0.21665128016414936,
            -0.2893905270081699,
            0.211001839981376
          ],
          [
            0.02526929101041854,
            0.21821096728415718,
            0.019297678910144583,
            0.3356879375717945,
            0.2766841989487579,
            0.06925453185479574,
            -0.5917189957195512,
            0.23976436772260268,
            0.06707976944420224,
            -0.5469784127666779,
            -0.06665477955053778,
            0.3435333275768355,
            0.16450724631996796,
            -0.36559822820072563,
            0.5619551144943981,
            0.1213827556875004
          ],
          [
            -0.18536763847278698,
            -0.04306453517973566,
            -0.1535098223550149,
            0.054531070933125744,
            -0.20860996884558722,
            0.1758347396171361,
            -0.01131645535566353,
            0.1132949724658727,
            0.021709329692153223,
            0.06962269234591131,
            0.013536943287282971,
            0.25044302494117654,
            0.20771545526250143,
            -0.007533195339313986,
            -0.04236315498850768,
            -0.35272940344851933
          ],
          [
            -0.35308181562059315,
            -0.48469096247975824,
            -0.02619839341621305,
            -0.24298363463463823,
            0.1411949149777864,
            -0.08675818153590698,
            0.33301589234453116,
            0.12094856432927176,
            0.11796665983296084,
            0.06235969241449548,
            -0.16416965995507785,
            -0.017409018722473045,
            -0.04802990543782565,
            -0.4349365251870083,
            0.1518054914358837,
            -0.4279500241776117
          ],
          [
            -0.07067225225647379,
            -0.2286762429030261,
            -0.069701488244677,
            0.13300642928063494,
            -0.1923004124114424,
            -0.32615776341299163,
            0.24620024729119122,
            -0.02302587845228643,
            0.1638513672246589,
            0.09264841350943422,
            0.18153156721620234,
            0.23999175945114742,
            -0.2958051211361047,
            0.04888414610547592,
            -0.012304409550515844,
            0.22732404911864337
          ],
          [
            -0.3913593781995188,
            -0.38306796777157565,
            -0.30022654361663603,
            -0.0182327517222275,
            -0.11264189932101833,
            0.02375889277630121,
            -0.3329565162401318,
            -0.08434149459401105,
            0.0013681936845459028,
            -0.21247512871988677,
            -0.3186773601748042,
            0.11619152604462113,
            0.428041326651584,
            -0.2516188238822645,
            -0.22267726352523468,
            0.3780698046969755
          ],
          [
            0.19216369629255195,
            0.3163815421368677,
            -0.2534110932751732,
            -0.11775630423256092,
            0.15621108663826622,
            -0.11680886152573995,
            0.07611559449648682,
            -0.04238508519776901,
            0.2416387993529611,
            0.18242088893308292,
            0.08085996454794453,
            -0.025277549130462984,
            -0.24765187176693124,
            0.09752016612751577,
            -0.07626332841725234,
            0.2601178977291852
          ],
          [
            0.029789605447233802,
            -0.2303819590615469,
            0.04347764695768998,
            0.23558252982568004,
            -0.17651665681379022,
            0.04447438652024958,
            -0.12482556172527191,
            -0.12435560001258877,
            -0.31829591523729606,
            0.005699174405603108,
            0.19013145821717015,
            -0.06377030681204689,
            0.11232022486052745,
            0.10586324676467276,
            0.0995845686833034,
            -0.009575358484429954
          ],
          [
            -0.355707972787765,
            0.143162990670671,
            0.2377868261445162,
            -0.1995102957247997,
            0.44075636268752433,
            -0.40081911948254745,
            -0.25379365519633723,
            -0.29900905376336817,
            0.09103935316785458,
            0.5381725486998791,
            -0.4624925815834346,
            0.3776254038075412,
            0.31869053553966514,
            0.13190354684672662,
            -0.1537707133004269,
            0.5352765171871641
          ]
        ]
      },
      {
        "inputs": [
          0,
          0,
          1,
          0,
          0,
          0,
          0,
          0,
          1,
          1,
          0,
          0,
          1,
          1,
          0,
          1
        ],
        "outputs": [
          0,
          0,
          1,
          1,
          1,
          1,
          0,
          0,
          0,
          0,
          0,
          1,
          1,
          1,
          0,
          0
        ],
        "biases": [
          -0.15501159442351792,
          0.015245102662378829,
          -0.328864141540615,
          -0.18154416104509954,
          -0.03501032119339606,
          -0.24847031596349095,
          0.1696558767637447,
          0.21828053018762006,
          -0.3366996234011723,
          -0.03122530276318742,
          -0.08473959078088895,
          -0.22087159222218813,
          -0.34587956651200435,
          -0.04129794486979278,
          -0.19033698169473237,
          0.2306534479855972
        ],
        "weights": [
          [
            -0.30708930541093993,
            0.131263216951587,
            -0.15528380202159048,
            -0.14983317543608649,
            0.06442572867096771,
            0.20064078004900127,
            -0.5262426147491645,
            0.0670098225979347,
            0.33729407443759407,
            0.19761889146175554,
            0.3901089906757632,
            -0.0028338037762900004,
            -0.2570978352122252,
            -0.17966131023150544,
            0.0008685386998397715,
            0.13935365461079519
          ],
          [
            0.013241102668312972,
            0.24217579668605885,
            -0.30019326849110395,
            -0.4743888597725651,
            -0.4551556889461704,
            -0.36117113486777047,
            0.02761163346338165,
            0.306996483805533,
            0.0431880931237721,
            0.34762733583524835,
            -0.19559657249541662,
            0.49779928975940346,
            0.06963706550980583,
            0.32206851993771396,
            -0.031169539862736406,
            0.010202456481301636
          ],
          [
            -0.045149906546923246,
            -0.3773418841727644,
            0.09740186462015683,
            0.03878295064545213,
            -0.020743310614374927,
            0.20292538466462756,
            0.12442486968049926,
            -0.12576212229212094,
            -0.31414864063028886,
            0.3295025687677713,
            -0.12453331425301536,
            -0.3038564638331954,
            0.4049319173306254,
            0.10251492526862105,
            -0.20698123751985395,
            0.2777475081004474
          ],
          [
            -0.4681844933408078,
            -0.2492053531453952,
            -0.2703277847409712,
            -0.02940444465927647,
            0.45572742980071773,
            -0.05407365378000201,
            0.3935001872603634,
            0.09057756544983785,
            0.09727030873857515,
            -0.20722589900553612,
            -0.15196132232245374,
            0.15167959730585637,
            0.0730617170304089,
            0.3016590067605919,
            0.028248356339882166,
            -0.2730393846599134
          ],
          [
            -0.1928635398667571,
            0.08949784662795668,
            0.2631859529796521,
            -0.45975646643438695,
            0.04023704609285596,
            -0.6281693179373726,
            0.05309867492513923,
            0.4082894776469797,
            0.29883453148803285,
            0.5540697800940205,
            0.2475405881784131,
            -0.050422909149371115,
            0.49505645299755974,
            -0.007546016793937044,
            -0.2444849881167919,
            -0.13598372028478456
          ],
          [
            -0.4395319993251609,
            0.12804246292567054,
            -0.28727083084060223,
            -0.023922438739042873,
            0.34711045454821304,
            0.48543976397780664,
            -0.14311813282210667,
            0.11957101978900181,
            0.21725942055809294,
            -0.5158548042752206,
            -0.30641205218749074,
            0.06518935353794947,
            -0.07982310151018028,
            -0.14494723109483326,
            -0.4604162886820674,
            0.07578893415939575
          ],
          [
            0.13903769701030375,
            -0.16192686159659203,
            0.3639864557225247,
            0.3131450210001305,
            0.43330085570076665,
            -0.3010541619308045,
            -0.4814446415658629,
            -0.1675144990207621,
            0.045592181020754574,
            -0.03126425515478124,
            0.01805730704561187,
            -0.637397271673174,
            -0.21623556580452585,
            0.41678155344757983,
            0.2058422089024996,
            -0.35695548276695577
          ],
          [
            0.24518480630216793,
            0.3208111359984145,
            0.11099841454301501,
            -0.26048102420924,
            0.1813441673018028,
            0.24369429050464403,
            0.16550512461501923,
            0.15433187608927185,
            -0.043276082048206585,
            0.08202100438443163,
            -0.18104286452850166,
            0.1181992248960721,
            0.10107489245829987,
            -0.28541301540068126,
            -0.42012947307432746,
            -0.11037928873016756
          ],
          [
            -0.28833667636435534,
            0.000038247270218796925,
            0.0671989677278642,
            -0.2507268917241849,
            -0.09104700414088165,
            0.045432532675288434,
            0.3333807089957297,
            0.22961847112745637,
            -0.31634866130497014,
            -0.05692107197693366,
            -0.014401013150548453,
            0.2889664422022442,
            -0.09460472301049194,
            -0.1878486120991299,
            -0.5376383033980844,
            -0.49792355300444596
          ],
          [
            -0.41713125208380364,
            -0.2867120012703041,
            0.07253598080743094,
            0.46176065805837146,
            -0.1284174109017961,
            -0.4300316210097457,
            -0.22817988439257966,
            -0.2603018376599784,
            -0.4106842196330028,
            -0.11991532450441968,
            -0.1480867335755967,
            -0.007141613334013579,
            -0.062256179824241226,
            0.3201650519975423,
            0.08926661915689278,
            -0.28438483358062977
          ],
          [
            0.1398987428288237,
            -0.13988397466236027,
            -0.2008246427421682,
            -0.12815420656401402,
            -0.1408069103440127,
            0.0009923397331404182,
            -0.18425663348134938,
            -0.038452367459959724,
            0.01949935521677404,
            -0.3084296246247622,
            -0.13935846723091722,
            0.30411857567348355,
            0.009482154254801034,
            -0.08536100813316398,
            -0.1974955163343745,
            0.0036203771263819892
          ],
          [
            0.23506658281914505,
            0.010696641814835137,
            0.029987232422162613,
            0.03665905347892834,
            -0.36602991607938345,
            0.2563916491871241,
            -0.02358210529982621,
            0.2894060174346898,
            -0.3254186415645922,
            0.043363157520882725,
            -0.05360647674126517,
            -0.16848090023921553,
            0.5287911935411356,
            0.12223616295038515,
            0.15866939155274012,
            -0.1764180587266131
          ],
          [
            -0.19123925312967688,
            0.3730273181440145,
            0.17930633934578688,
            -0.22235149733165388,
            0.31674915854597663,
            0.16949296879862835,
            -0.18979457013046425,
            -0.09121383114039919,
            0.12128579072538809,
            -0.23466160565190525,
            -0.30453572241203386,
            0.46605839732936793,
            0.35130723915729906,
            0.2518912193227024,
            0.03628843590611172,
            -0.4245706422667467
          ],
          [
            -0.27812467086830506,
            0.4430081828396961,
            -0.1693469194260842,
            0.05476383745375456,
            0.3447531982350395,
            -0.04478061040307576,
            -0.04165428069751356,
            -0.29555261197578464,
            -0.1614377411702676,
            0.03385641387179619,
            -0.18654102319552124,
            -0.10523981393571913,
            0.010442269979305668,
            -0.23569184269836896,
            0.15155993312922358,
            -0.05384264425953385
          ],
          [
            0.16698237849311653,
            0.02065766448043599,
            -0.31959386225234965,
            0.15759224244269696,
            0.21611796413719758,
            0.028428882755353158,
            0.5791111872695485,
            0.09432086861637787,
            0.3692273203546255,
            0.06601030287242204,
            -0.10094465088674417,
            0.21856219607677949,
            0.1177558840351823,
            -0.3547085928278192,
            0.21577574819336187,
            0.13900523985790142
          ],
          [
            0.2536693560887777,
            -0.18294121080672174,
            0.10094209238257519,
            -0.2578229394818793,
            -0.27609824786142845,
            0.008773364633496893,
            -0.007460175199841823,
            -0.40397721763581373,
            0.08690028862665486,
            0.01415595959534105,
            0.2623856013508425,
            0.030025056621075644,
            0.01685953190639726,
            -0.11863998293663558,
            -0.05251719105292535,
            -0.10812001043907243
          ]
        ]
      },
      {
        "inputs": [
          0,
          0,
          1,
          1,
          1,
          1,
          0,
          0,
          0,
          0,
          0,
          1,
          1,
          1,
          0,
          0
        ],
        "outputs": [
          0,
          1,
          1,
          0
        ],
        "biases": [
          -0.019237104262409127,
          -0.11044738506753286,
          -0.45109067044509576,
          0.19192263149136696
        ],
        "weights": [
          [
            0.0703971157258246,
            -0.10124909301998758,
            0.043152936467152125,
            0.2594001283573524
          ],
          [
            0.390693678844124,
            -0.24995050676142483,
            -0.05219989707340464,
            0.3078359042816469
          ],
          [
            -0.030852827912539987,
            0.41271425733873907,
            -0.2749725879737358,
            -0.06077034744183868
          ],
          [
            0.2279649938589337,
            -0.05707955936347611,
            0.16865237457492702,
            -0.4946772009199331
          ],
          [
            0.3371180341012665,
            0.021341172170651235,
            0.1138152746640409,
            0.2369929854198454
          ],
          [
            -0.33337099213454413,
            0.03885761949473274,
            -0.21346813443483054,
            -0.527127041607697
          ],
          [
            0.13538048316482273,
            0.01210522942708947,
            -0.18702051023449542,
            -0.24375499073368934
          ],
          [
            0.10905784617816691,
            0.14588177997092794,
            0.3004249588692639,
            -0.09345269064924944
          ],
          [
            -0.037807078157131316,
            -0.30664745077588923,
            0.04500803057663175,
            -0.11474532291388068
          ],
          [
            -0.31835859851208914,
            -0.5216646601670283,
            -0.011807296208048018,
            0.03236273726743713
          ],
          [
            0.09454994119830422,
            0.06934653636932026,
            -0.07155528360564958,
            -0.26401903957161527
          ],
          [
            -0.5491825125320208,
            -0.3656506777063896,
            0.0055255417417121155,
            -0.04423680668456584
          ],
          [
            0.09947222521788343,
            0.24908026039758208,
            -0.13956430444723325,
            0.08221778564697924
          ],
          [
            0.09350039648246306,
            0.05455808069178225,
            0.06200256821172867,
            0.10157412255568928
          ],
          [
            0.19086046003476764,
            0.22218965380662337,
            0.16408796107921814,
            -0.05272157139799519
          ],
          [
            0.27463021250754915,
            0.06930184275298082,
            0.18610085615344812,
            -0.6430586703647087
          ]
        ]
      }
    ]
  },
  "maxSpeed": 8,
  "friction": 0.05,
  "acceleration": 0.2,
  "width": 30,
  "height": 50,
  "hiddenLayers": [
    16,
    16
  ],
  "sensor": {
    "rayCount": 15,
    "raySpread": 2.2,
    "rayLength": 400,
    "rayOffset": 0
  }
}