{
  "brain": {
    "levels": [
      {
        "inputs": [
          0.6522034094913789,
          0.6240146774247053,
          0.5795793316258826,
          0.16774229652468586,
          0,
          0,
          0,
          0,
          0,
          0,
          0.054077881273099204,
          0.3134929671603054,
          0.450619718821752,
          0.5324830914405017,
          0.584195562915373,
          0.99375
        ],
        "outputs": [
          1,
          0,
          1,
          1,
          1,
          0,
          0,
          1,
          1,
          1,
          0,
          1,
          1,
          1,
          0,
          0
        ],
        "biases": [
          0.15729888356481914,
          0.2621373664697151,
          -0.29024300178741685,
          -0.08672610040347446,
          0.38584913348035593,
          0.3951950264659953,
          -0.03932679757646408,
          -0.4916379727678594,
          -0.10166887319101757,
          -0.4182340022682905,
          0.378561510892343,
          -0.07397745968170796,
          -0.21628416042551232,
          -0.0763938267848791,
          0.30780441264668523,
          -0.05804420326530457
        ],
        "weights": [
          [
            -0.1867976488062976,
            0.20230437157060016,
            0.1447469266746013,
            -0.08200758084647423,
            0.22958247869461046,
            0.2041642493476026,
            -0.2456990018482163,
            0.2578351667865668,
            0.2748163393774948,
            0.18053454885498227,
            -0.27112323582746906,
            0.05995960914309201,
            0.2388827833718331,
            0.1519055234342891,
            -0.3825118917198761,
            -0.06342790071074686
          ],
          [
            0.2335639289911511,
            -0.2946522861852677,
            0.17736813864725176,
            -0.06315831674502806,
            0.0802980470622992,
            -0.062085750362869924,
            0.2777938198419426,
            0.40203066163905055,
            0.16381790636539115,
            -0.3844967399165255,
            -0.0773362715952754,
            -0.17051557164147613,
            0.3893642547064389,
            -0.09518102244372206,
            0.11074048101276288,
            -0.4738068481570703
          ],
          [
            -0.033416514766861874,
            -0.007171144571991833,
            0.36529557989025235,
            -0.023921206170155654,
            0.060436912858855746,
            -0.4525559072085717,
            0.12482141460649833,
            -0.08997817499874773,
            0.36410921430718046,
            0.013201242968065713,
            0.063353861708352,
            -0.05849748250152362,
            -0.2092367210340888,
            0.13747393414929562,
            -0.05201458166531896,
            -0.14496373741731106
          ],
          [
            0.4137383920645926,
            0.19700790015217964,
            0.011748791213136073,
            -0.24385996604608762,
            -0.0911303698386538,
            0.08100712841173413,
            -0.16424652168345527,
            -0.2420974842667994,
            0.14691307013288266,
            -0.13037943489425563,
            -0.2619418387934267,
            -0.1526121900654569,
            0.40484192810194786,
            -0.2532367127685713,
            0.06583502949219279,
            -0.34024928077109684
          ],
          [
            -0.3638975461699592,
            0.042669081900742596,
            0.038505631477165944,
            -0.17546594087398218,
            -0.022726348738422913,
            -0.1788303786544952,
            -0.06271971015264179,
            -0.03527189179064252,
            -0.22737141528818228,
            -0.18902756919103963,
            0.03076850585276271,
            -0.42428294781831616,
            -0.05670078482738769,
            0.034897965036276096,
            -0.09222033667295554,
            -0.1640602071554631
          ],
          [
            0.1478646640761876,
            -0.24298681248730009,
            0.2517442309122324,
            -0.26151063453749585,
            -0.2932689433170257,
            -0.00015849375397733456,
            0.06958859319565643,
            0.19721714177411148,
            -0.1618697613880124,
            0.1163340143681008,
            -0.3095635225368367,
            -0.061682365112850635,
            0.20295709418879293,
            0.08974491852055343,
            0.1193680129789504,
            -0.056926636462593445
          ],
          [
            -0.06522688987505683,
            0.19651766913781724,
            -0.3015630575300706,
            -0.13812869665197594,
            -0.24099116585495595,
            0.036828017603851834,
            -0.19564643552365252,
            -0.27539573580010235,
            0.035666784000820205,
            0.12534754387448527,
            0.34620487572926056,
            -0.2344650845524019,
            0.3191476948918055,
            0.19146882471633675,
            0.12147120187679351,
            0.02518722793679569
          ],
          [
            0.2067974283301211,
            -0.015508305726837479,
            -0.07368467281564205,
            -0.07819072786320042,
            0.15894490041919296,
            0.12499482218689313,
            -0.0824629747936635,
            0.13384914343506515,
            0.3892525665604867,
            0.3518320230266069,
            0.22562477364891695,
            -0.1170639117093179,
            0.30452438530385073,
            0.053493031775281474,
            0.2028564749978684,
            -0.2507028780380665
          ],
          [
            0.13872289789996242,
            -0.23053809156921826,
            0.3634744238917803,
            -0.335066400035428,
            0.2939571894513384,
            -0.09855817370913664,
            -0.20226030312668963,
            -0.2645664223064039,
            0.13758882198949385,
            -0.2229799930611968,
            0.2660582285854951,
            0.4945472114789068,
            0.32385742949064,
            0.07769798377266651,
            -0.044033404994420225,
            -0.4128459564061704
          ],
          [
            0.24338801587369083,
            -0.10465852671700224,
            0.2549636851239683,
            -0.2019951657653784,
            0.3194276485642512,
            -0.21064581049495051,
            -0.5901440524578246,
            -0.003454646082861345,
            -0.03592527827643861,
            0.10972676535883913,
            -0.04680678713471413,
            -0.15211597978361358,
            -0.15353214863948736,
            -0.09345088444419164,
            0.3473468913189547,
            -0.0064178648081075
          ],
          [
            0.36570428770305213,
            0.2101201307018227,
            -0.10502238487262433,
            0.07588584980340911,
            0.21157640768074054,
            0.2653763777624746,
            -0.4901715550190342,
            0.08101038957108064,
            -0.5115669526554577,
            0.09916291767174171,
            0.16307460109087013,
            -0.14638920039585607,
            0.18011658096653413,
            -0.3742337603622563,
            -0.1381225768984397,
            -0.03795173310440106
          ],
          [
            -0.09636339501545325,
            0.03257319378686108,
            0.12624801315614254,
            0.08350123130940056,
            0.2624993252266272,
            -0.3013883350707278,
            -0.04462276827424075,
            -0.09738906046590917,
            -0.28964699372047953,
            -0.3636008447953118,
            0.4476884806185053,
            0.27195759852496915,
            -0.0842904676650538,
            0.006097416173202683,
            0.23691836649246242,
            0.11305109612660602
          ],
          [
            -0.17125041464162805,
            -0.3256711490345821,
            -0.22836933553020672,
            0.03391230259499606,
            -0.09471514675080336,
            0.24908471364523876,
            -0.0005845354116892076,
            -0.2255858142425085,
            -0.17881960091904162,
            0.06921668946418359,
            -0.14996077726207185,
            -0.18494751164728934,
            0.27839609648005226,
            -0.22004652717388407,
            0.15183039745074056,
            -0.16937546442699786
          ],
          [
            0.21212701226606306,
            0.2669391586537677,
            0.22192019461777213,
            0.06896551264526538,
            0.03341911901794774,
            -0.10812792888362197,
            -0.15795516350748715,
            0.2834450465551227,
            -0.13428228703602993,
            0.13232938923226947,
            0.036535184587738995,
            0.37205102755563463,
            -0.20934550645993966,
            0.4082500476628598,
            0.0788029580330808,
            -0.018470861988114373
          ],
          [
            0.2577083326490327,
            0.39447435198712333,
            0.04447671114861284,
            0.21645026800080308,
            0.14467800672328526,
            0.07736191456346367,
            -0.09743657339398135,
            -0.36646781537746154,
            -0.1840842097234562,
            -0.20076762645312085,
            -0.49303948102485723,
            -0.06054624912873721,
            0.10152356554415998,
            0.032962144281892,
            -0.017253830370328946,
            0.14060843789796287
          ],
          [
            0.22325747551555433,
            -0.011628304745633367,
            0.40787461707251627,
            -0.14160475108675946,
            0.03400983331155191,
            -0.03874032331175688,
            0.04599301713132292,
            -0.34603488463350507,
            0.04306338641550789,
            0.289429330551757,
            0.2941751799428757,
            0.005089487941474596,
            -0.312378163937639,
            0.3385388743249058,
            -0.06772184680440864,
            0.06056601890084698
          ]
        ]
      },
      {
        "inputs": [
          1,
          0,
          1,
          1,
          1,
          0,
          0,
          1,
          1,
          1,
          0,
          1,
          1,
          1,
          0,
          0
        ],
        "outputs": [
          1,
          1,
          0,
          0,
          0,
          1,
          1,
          0,
          0,
          1,
          1,
          0,
          0,
          1,
          1,
          1
        ],
        "biases": [
          0.10475629621933107,
          -0.18499671809743154,
          0.008497726531852295,
          0.025184823694743536,
          0.20539060048882354,
          -0.1376703208875563,
          0.2426844393885394,
          0.06500893671357472,
          -0.01738198715490484,
          -0.06507723081322567,
          -0.37492192624705173,
          0.14481747618887741,
          -0.025459733079008513,
          -0.19813353289085342,
          0.149960825539291,
          -0.2214919338798173
        ],
        "weights": [
          [
            0.19785551392557182,
            -0.22154462131906716,
            -0.2903924301853381,
            -0.17831643519560247,
            -0.29371413398717505,
            -0.22531221001799395,
            0.024439022115239684,
            -0.25605549429778685,
            -0.4349249273971988,
            0.22712183718350776,
            -0.10265183790551126,
            0.029587259328651763,
            -0.04413827581708033,
            0.2860068737685557,
            0.6526292134489947,
            -0.07888980244066196
          ],
          [
            -0.10853728240399234,
            -0.21059221050882496,
            -0.01886688239219561,
            0.18613915844292095,
            0.1616796795696272,
            0.03404340673182481,
            0.44812404481626994,
            0.07698396252819906,
            -0.5063539690646055,
            0.15727942480286888,
            0.052219659815295555,
            0.10893291550197093,
            -0.15386153237570238,
            0.08962783419599982,
            -0.19622203140544442,
            -0.038784553845048
          ],
          [
            -0.2356992641183421,
            0.04249877413129822,
            0.08280274882147452,
            0.21450102431157775,
            0.15286533327543425,
            -0.04558640858724352,
            0.3215775680339231,
            0.029514913082234022,
            -0.053529877390735225,
            -0.23452334677455722,
            -0.2213166781941009,
            0.03162102556549474,
            -0.30174287332365773,
            0.02402831417344954,
            0.15464613800784027,
            0.1319130349291999
          ],
          [
            0.4151697673803091,
            0.31621218416032165,
            0.09788386460027736,
            -0.45253819182187655,
            -0.13810721080485375,
            -0.08053299512670926,
            0.2651219984164084,
            0.00014129489791334104,
            0.18810833525435564,
            -0.014053115486996174,
            0.36629767574345184,
            -0.0986526276123033,
            -0.16744268318062133,
            -0.1911121455539153,
            0.0627832020095565,
            -0.03959653884712612
          ],
          [
            0.21985346849416287,
            -0.3889730752177736,
            0.25632504058802896,
            0.11142213891595901,
            -0.09964839864414583,
            -0.15561156396579995,
            -0.12676499909655353,
            -0.09441482805132602,
            -0.10289198495212931,
            -0.10962723204551919,
            -0.1279612319987381,
            -0.07578875793309403,
            0.32938564159124817,
            0.16547207132881953,
            0.11841721078215202,
            0.29499033909075323
          ],
          [
            -0.0389749395289478,
            0.3507723864133835,
            -0.025141711652405488,
            0.38880937162238166,
            -0.11329386542909209,
            0.05030299015495977,
            -0.12187422861331011,
            0.12604488339551645,
            -0.3740801832059999,
            -0.27784916418083916,
            0.13817883867036135,
            -0.5419435107640367,
            -0.24523712368267336,
            0.33698539178787573,
            0.3582526654250831,
            -0.06679718975168955
          ],
          [
            0.0009989153457091449,
            0.04057310493690436,
            0.15029923063863937,
            -0.004125311253650427,
            -0.42541941279957,
            -0.08040583171190004,
            0.13058068133403686,
            -0.012553726950493223,
            0.012024680059001758,
            -0.4870279604107005,
            -0.03049871144562835,
            0.07211683167253742,
            -0.4607190505716275,
            -0.2394633789937507,
            0.2621675114077109,
            -0.08689926305469343
          ],
          [
            0.09559118737149458,
            -0.019333074961293203,
            -0.09716347521931157,
            -0.3784516311850281,
            -0.05596700585812778,
            -0.07672145385092627,
            -0.06971781488945603,
            -0.12234140795591333,
            -0.1714466832044785,
            0.24437930292253218,
            0.20622967183349394,
            -0.00032010052888764573,
            0.0575969115414329,
            0.19912388871373346,
            -0.19050083678223295,
            -0.20971592949471332
          ],
          [
            -0.1850227905512969,
            0.10182064749942808,
            -0.2288497513645353,
            0.28566176581855623,
            0.024581573079909935,
            0.18617978794449147,
            -0.04534282042387344,
            -0.0702100983407055,
            0.08916316286450622,
            -0.42020411538891084,
            -0.07726918448771483,
            -0.1501802359224753,
            -0.009395739258432081,
            -0.18519195422309487,
            -0.09702506206323888,
            -0.4077394427337914
          ],
          [
            0.14731184338474565,
            0.010953075740500227,
            -0.28142073705770426,
            -0.4666318827147685,
            0.24225823357891263,
            0.25474152676181616,
            0.05640640165296652,
            0.0071814462685411,
            -0.1338146197039134,
            0.16816579134536488,
            0.46960534436501294,
            -0.10069971266284128,
            -0.1613968192497541,
            -0.15163611475216876,
            -0.2637839103715165,
            0.21233077974740572
          ],
          [
            -0.0756435769876127,
            -0.3245630249335392,
            -0.024982049040587886,
            0.2372860612782897,
            -0.2331528825428441,
            0.46384763764025777,
            -0.1818285621109312,
            -0.054113659037630206,
            0.16235605848616502,
            -0.1098861848135739,
            0.15024736006187533,
            0.15565604957632478,
            -0.34754316606999824,
            0.12047565059909779,
            -0.30603537315009877,
            0.032981343725657274
          ],
          [
            0.44764770621894895,
            -0.04987614360288478,
            -0.02270802425147628,
            0.19707512862459564,
            -0.08778331609176279,
            0.1531845498442036,
            0.11388313116430814,
            0.10448937421378882,
            0.04812254218688625,
            -0.08555605653765405,
            0.03791816717269783,
            -0.017622277389401295,
            -0.10287717346195042,
            -0.048757640640957584,
            -0.17212120697918626,
            0.20797101501297646
          ],
          [
            -0.2671587240870715,
            0.09749290074926162,
            -0.08517219571874138,
            0.1694662048059868,
            0.16823466260566444,
            -0.169692046215375,
            -0.031021046289667828,
            -0.37023948152302716,
            -0.32174769702492156,
            0.22409233662649466,
            0.05610775738812116,
            -0.002908997450529846,
            0.12953041793268216,
            0.14736490089619325,
            0.048067688413237344,
            -0.06457969184212875
          ],
          [
            0.04864954236042282,
            0.1954951833607602,
            0.11384653130219696,
            -0.514652374268906,
            -0.26418073936747877,
            0.42077380411267296,
            -0.15293013569092911,
            0.2724210362517337,
            0.05155084489676156,
            0.01403882045976837,
            0.12725080005628683,
            -0.025443165615134263,
            -0.1426945034213782,
            0.4666126539495203,
            0.3544563314677203,
            -0.21388580224455978
          ],
          [
            0.4098423065106884,
            -0.17900240403609793,
            0.14779636848252695,
            -0.24512251095633836,
            0.13074649877540967,
            0.10536903919330294,
            0.3905440549518663,
            0.48081210136779373,
            -0.13619543117515606,
            0.3761474381915368,
            -0.1812335246103724,
            0.10892400269112731,
            0.1013136184335163,
            0.16616226456947578,
            -0.018569365242805586,
            -0.4755356273232737
          ],
          [
            0.06008092223266952,
            0.04121026996306412,
            -0.5060035310049894,
            -0.37306819153431126,
            0.219692911119164,
            0.1519604777022815,
            -0.40525943021686617,
            -0.22805623709015732,
            -0.12602244070716617,
            0.24169688857205573,
            -0.19001214001805908,
            0.44539724582335977,
            -0.3295893145475863,
            -0.061723056282360494,
            -0.11266680221077292,
            -0.2838019188999477
          ]
        ]
      },
      {
        "inputs": [
          1,
          1,
          0,
          0,
          0,
          1,
          1,
          0,
          0,
          1,
          1,
          0,
          0,
          1,
          1,
          1
        ],
        "outputs": [
          1,
          1,
          0,
          0
        ],
        "biases": [
          0.020382472098059788,
          0.2778179531222287,
          0.31968517840198574,
          0.191784336093177
        ],
        "weights": [
          [
            -0.009026279467018271,
            0.06484591923578191,
            -0.15395561114042056,
            -0.04039149131337194
          ],
          [
            0.2865795667126199,
            -0.0012990546986751395,
            0.27513835072986365,
            0.002823115791085379
          ],
          [
            -0.01470589667927047,
            -0.19968646660750133,
            0.311392140936278,
            0.43911048375654826
          ],
          [
            -0.11131051537519888,
            0.04474646629029613,
            -0.04781283819623802,
            -0.034310928430531365
          ],
          [
            0.03340268240058371,
            -0.019078505021295433,
            -0.21231890585148117,
            0.21612401777183765
          ],
          [
            0.12206093942400169,
            -0.015857948784604156,
            0.20298486974320942,
            0.14822653376472777
          ],
          [
            -0.05536225901497102,
            -0.00010820420209843584,
            -0.2945265619204849,
            -0.10707636465786068
          ],
          [
            0.31567753209796323,
            -0.20869465136754325,
            -0.0016905478084967979,
            -0.19769656492594861
          ],
          [
            0.24502201152211497,
            0.2292994918010502,
            0.08334630991405978,
            -0.004914732273210761
          ],
          [
            0.06261221218975921,
            -0.027722768663837244,
            -0.18177869941179403,
            0.07214610091978532
          ],
          [
            0.36837507106354744,
            0.23481697836881887,
            -0.07417783589203589,
            0.14461720773317008
          ],
          [
            -0.17323912521241222,
            -0.053213504056630626,
            0.044368249703627696,
            -0.1634137075013272
          ],
          [
            0.005178891920932221,
            0.061722121927856144,
            0.02728946082039274,
            0.02397997982519859
          ],
          [
            0.1475604868337621,
            -0.01583892541859236,
            0.3764499397134789,
            0.1162468785468427
          ],
          [
            0.20213394829514386,
            -0.17904819703313204,
            0.08378231175025035,
            -0.4744056260859248
          ],
          [
            0.034088336554581766,
            0.250058766157072,
            0.02864064041548812,
            -0.06505197720486061
          ]
        ]
      }
    ]
  },
  "maxSpeed": 8,
  "friction": 0.05,
  "acceleration": 0.2,
  "width": 30,
  "height": 50,
  "hiddenLayers": [
    16,
    16
  ],
  "sensor": {
    "rayCount": 15,
    "raySpread": 2.2,
    "rayLength": 200,
    "rayOffset": 0
  }
}