{
  "brain": {
    "levels": [
      {
        "inputs": [
          0.3857894062105761,
          0.35338004203061146,
          0.28736689402015636,
          0.16946748292479874,
          0,
          0.792423922595563,
          0.8057834655870781,
          0.8104266660456135,
          0.8073521008054882,
          0.7959054180697465,
          0.46579046272741953,
          0
        ],
        "outputs": [
          1,
          0,
          1,
          0,
          1,
          0,
          0,
          0,
          0,
          0,
          1,
          1,
          1,
          1,
          1,
          0
        ],
        "biases": [
          -0.29323601433820745,
          -0.12707175258696587,
          -0.40589414073096103,
          -0.27446325625353996,
          0.06466277724164929,
          0.041153667885947404,
          0.09309407505290598,
          0.1653721403938328,
          0.28137010928314343,
          0.13980302014418433,
          -0.3253115756321252,
          0.13618953166677508,
          0.010061651464902815,
          -0.061725092531604575,
          0.09975280824690153,
          -0.001034596076844585
        ],
        "weights": [
          [
            0.2456000823637451,
            0.17083418793159955,
            -0.05669294459846752,
            0.04348767702100026,
            -0.2798052964096055,
            0.12943297289770445,
            -0.360737447378472,
            -0.2896496303021654,
            -0.098723282536515,
            0.11725524456656991,
            0.20674533522281818,
            0.3536368462059314,
            -0.09109632873897794,
            0.20656484810249243,
            0.2716442221765912,
            -0.14275509908654185
          ],
          [
            0.2291132250649189,
            -0.33919403272053983,
            0.16929792588481585,
            0.2749657098798785,
            -0.1508672427297234,
            0.04119457448254167,
            -0.2866004876169788,
            -0.056900986214099544,
            0.31110940588548747,
            -0.19767184066214788,
            0.21587671696836397,
            -0.11005452003855792,
            0.1335669180394553,
            0.10117438759018113,
            -0.48737448068742156,
            -0.08732131656074513
          ],
          [
            0.30151778708679694,
            0.32276035474950293,
            0.07415713004240271,
            -0.04910902923053615,
            0.042807556751862444,
            -0.07857627472269203,
            0.02244204804775818,
            -0.05685915102469604,
            -0.10415090766377341,
            -0.30269775213921113,
            0.010625394164266694,
            -0.15892974280511754,
            -0.073340894009393,
            0.1141449858531904,
            -0.09699368559819399,
            -0.41218925617091895
          ],
          [
            -0.0454489199368294,
            -0.19030386885566195,
            0.23389450444930998,
            0.06415868485820747,
            -0.17377496586202618,
            0.13506904123203978,
            -0.3997900558934977,
            -0.062227725097495565,
            -0.021370800910495452,
            -0.22026480921500652,
            -0.08078276968246206,
            -0.17357227194272268,
            0.06594426653734306,
            -0.18788397437557425,
            0.36311245909534484,
            -0.21025057761481056
          ],
          [
            -0.11031699178596743,
            0.08280467095943202,
            -0.14691787430398356,
            0.14151276825823733,
            0.2091532238881978,
            -0.42213651551616216,
            -0.09402814329781517,
            0.3042775946780855,
            -0.10229604448512541,
            -0.15025516223780142,
            0.25320744175332743,
            0.13606319767468503,
            0.09897071102839014,
            -0.3389661170496553,
            -0.0643707981537941,
            -0.34136131262039127
          ],
          [
            0.04522910906161215,
            -0.24942724870889407,
            -0.29909592516529193,
            -0.005347057924108417,
            0.17404383193524536,
            -0.18272453421345256,
            0.09074843504359355,
            -0.24977294871455938,
            -0.030328411535328004,
            0.17238414451780001,
            0.19426266569083683,
            -0.06165374509361432,
            0.06225219242645722,
            0.21199524193511843,
            0.20518370755732995,
            0.16593858076477327
          ],
          [
            -0.15983665582137715,
            -0.004113186562187149,
            0.20433454809793994,
            -0.24378549326519833,
            0.26083480497147654,
            -0.41443663499102834,
            -0.07749035391087683,
            0.2371949432525479,
            0.048581431179371276,
            0.24339784384946736,
            -0.1691691593299909,
            0.08715558141972232,
            -0.0607646995785021,
            -0.2716028544742783,
            0.11021297156400024,
            -0.08381441570337632
          ],
          [
            -0.0383928312702142,
            0.1970326649836793,
            0.045201240008681115,
            -0.49192352997388233,
            -0.18366288100100753,
            -0.020230012639954782,
            0.15569223614691596,
            -0.04669767098208691,
            0.28502262010334317,
            0.03257667024702897,
            0.07761302228824743,
            0.23096508528179954,
            0.4337162515397458,
            -0.027712925225176988,
            0.05892627761901678,
            0.35840233511176256
          ],
          [
            0.018585914101951678,
            -0.08756628956650256,
            -0.13302958635246712,
            -0.27430602923190806,
            0.21955195200129435,
            0.007535487963854018,
            -0.2793441863363491,
            0.19320308945998166,
            0.10809573172943676,
            -0.047357695478590534,
            -0.006550374136983672,
            -0.07765498742673332,
            0.4519509893111033,
            0.10737645153887514,
            0.0037166938995509546,
            -0.08707740209540137
          ],
          [
            -0.06419645328701029,
            -0.20571515379944424,
            -0.03790853580961514,
            -0.03056807019679783,
            0.141573871778209,
            0.10923430307158685,
            0.2129268699317628,
            0.046491595820028736,
            0.06323154810036896,
            -0.2025923027578393,
            0.09469236371619276,
            0.01388525660679285,
            0.04551848144799274,
            -0.18507972141585777,
            0.06362702005227336,
            -0.15667794067566593
          ],
          [
            -0.05593051484144651,
            0.018906599131368565,
            -0.015261483651104857,
            -0.28745829776663434,
            0.06142107634420202,
            -0.08175693248977906,
            -0.03456771651934229,
            -0.09423309342415845,
            -0.369671057223094,
            -0.11300743354138429,
            0.0011683558538785415,
            0.17290632992025995,
            -0.23020720824576163,
            0.3686337139432264,
            0.10233642336515608,
            -0.09864222705638875
          ],
          [
            -0.11565746163426976,
            -0.017416980705074712,
            0.18405293945474582,
            -0.1210567196819167,
            0.06427437593700472,
            -0.1743761434142102,
            0.042492800524944606,
            -0.08428106071998771,
            0.07372351323245824,
            0.16489718776194087,
            0.3911420378020851,
            -0.05604439243163761,
            0.24687361656341045,
            0.08554890434328238,
            -0.24739827376200824,
            0.02548041531546101
          ]
        ]
      },
      {
        "inputs": [
          1,
          0,
          1,
          0,
          1,
          0,
          0,
          0,
          0,
          0,
          1,
          1,
          1,
          1,
          1,
          0
        ],
        "outputs": [
          1,
          1,
          0,
          0
        ],
        "biases": [
          0.11308558605472246,
          -0.2817038362220802,
          0.0069791866872769975,
          0.1181483930875894
        ],
        "weights": [
          [
            0.13115651951126328,
            0.1670093604049822,
            -0.05081899451051203,
            -0.300815007530012
          ],
          [
            -0.19161404437109672,
            -0.09616301590540469,
            0.16943995094183192,
            0.153334209047425
          ],
          [
            0.45409468182200713,
            0.12137181535109205,
            -0.003390455931554664,
            -0.11404508015137618
          ],
          [
            0.2958810661489515,
            -0.36342349990532774,
            0.3053142716281874,
            0.11234006265305925
          ],
          [
            -0.03324219032445991,
            -0.1419469450835984,
            -0.06702919200255669,
            -0.16231719599159744
          ],
          [
            0.3432942844805686,
            0.050094346552758295,
            -0.24302312039884116,
            -0.21526232375360568
          ],
          [
            0.16887638201044103,
            -0.049941572244392426,
            0.015352589459127708,
            -0.042802411105845026
          ],
          [
            -0.035359350626532435,
            -0.24903384799917816,
            0.27120548885185325,
            0.10994017166963582
          ],
          [
            0.27360131327615733,
            -0.2079749727566631,
            -0.12890296926546163,
            0.16302516445640064
          ],
          [
            0.08266227863567013,
            -0.03490602450853181,
            -0.25629695480054976,
            0.037441133990570724
          ],
          [
            0.1015495255345486,
            -0.25967464685012465,
            0.10596170743959767,
            -0.1946921253630065
          ],
          [
            -0.028216253374303085,
            0.3028005999193909,
            -0.19899303172228205,
            0.30650902734341556
          ],
          [
            0.07787467949588088,
            -0.03487902946903716,
            -0.28405141878505397,
            -0.162153468650287
          ],
          [
            -0.07674350793099427,
            -0.001745402502524529,
            0.24177089138029176,
            0.2724299281505217
          ],
          [
            -0.020847018969041745,
            0.09509445108148129,
            -0.255824470807825,
            -0.10739316532664848
          ],
          [
            -0.4110397740860515,
            0.12274584764472135,
            0.0006870563643567029,
            0.07150406972279855
          ]
        ]
      }
    ]
  },
  "maxSpeed": 5,
  "friction": 0.05,
  "acceleration": 0.2,
  "width": 30,
  "height": 50,
  "hiddenLayers": [
    16
  ],
  "sensor": {
    "rayCount": 11,
    "raySpread": 2,
    "rayLength": 150,
    "rayOffset": 0
  }
}