{
  "brain": {
    "levels": [
      {
        "inputs": [
          0.5161930531248584,
          0.8767136486532251,
          0.5500000000000003
        ],
        "outputs": [
          1,
          1,
          1,
          1
        ],
        "biases": [
          -0.7516868728990503,
          -0.2570245630838496,
          0.45356274838330535,
          -0.6552425223239879
        ],
        "weights": [
          [
            -0.6851391729471522,
            0.014955417145608801,
            -0.23236832181118788,
            0.149094819399878
          ],
          [
            0.03506987481431975,
            0.13530048517054416,
            0.6764677642510655,
            -0.6225343263016682
          ],
          [
            -0.7712967856131361,
            -0.6967785684778577,
            -0.031134922141713012,
            0.1619811731911129
          ]
        ]
      },
      {
        "inputs": [
          1,
          1,
          1,
          1
        ],
        "outputs": [
          1,
          0,
          0,
          0
        ],
        "biases": [
          0.11084116052657218,
          0.12437583475771137,
          0.10131619246559187,
          -0.11407358443605135
        ],
        "weights": [
          [
            0.17523755322005452,
            -0.14768809882074652,
            -0.011223074442509223,
            -0.07147080234165563
          ],
          [
            0.12714227836248487,
            -0.03597094752637536,
            -0.008421110637428189,
            0.006261816090417656
          ],
          [
            0.04847198002673194,
            0.08165641628017019,
            -0.03898095079653487,
            0.07381295168905058
          ],
          [
            -0.23745838874249697,
            -0.2882837876863577,
            0.13524539101528005,
            -0.2971066045951869
          ]
        ]
      }
    ]
  },
  "maxSpeed": 8,
  "friction": 0.04,
  "acceleration": 0.08,
  "width": 30,
  "height": 50,
  "hiddenLayers": [
    4
  ],
  "sensor": {
    "rayCount": 2,
    "raySpread": 0.8,
    "rayLength": 350,
    "rayOffset": -0.4
  }
}