{
	"acceleration": 0.08,
	"maxSpeed": 8,
	"friction": 0.04,
	"sensor": {
		"rayCount": 2,
		"rayLength": 350,
		"raySpread": 0.8,
		"rayOffset": -0.4
	},
	"brain": {
		"levels": [
			{
				"inputs": [
					0,
					0,
					0
				],
				"outputs": [
					0,
					0,
					0,
					0
				],
				"biases": [
					-0.718748436426215,
					-0.12573476761552174,
					0.6905649033113677,
					-0.6269412448731382
				],
				"weights": [
					[
						-0.8470535588122029,
						-0.17659382313109057,
						-0.056258829593669804,
						-0.007233993238816086
					],
					[
						0.04865055839826176,
						-0.03268628623367429,
						0.8648955404603543,
						-0.8319397028319439
					],
					[
						-0.7279676843554076,
						-0.856854594409823,
						-0.056332382999418104,
						0.037079643033788384
					]
				]
			},
			{
				"inputs": [
					0,
					0,
					0,
					0
				],
				"outputs": [
					0,
					0,
					0,
					0
				],
				"biases": [
					0.01649100149896804,
					0.01635460061546369,
					0.06100779535928313,
					-0.01536488942618798
				],
				"weights": [
					[
						0.2481157868832527,
						0.023581561134629614,
						0.026994897787142355,
						-0.09756088530029303
					],
					[
						0.01297933768115573,
						0.0560572733601767,
						-0.12095548317289165,
						0.03942243768620084
					],
					[
						-0.03921842076391766,
						0.07171799978211173,
						-0.00491269652708029,
						-0.0879039324065086
					],
					[
						-0.05590831089358885,
						-0.12080999392110661,
						0.22295056295398452,
						-0.13325060792768142
					]
				]
			}
		]
	}
}